#include "top.h"
#include "predict_exp3.cpp"

#define WEIGHT_ENABLE

uint256_t sample(hls::stream<uint256_t>& in, float gamma, 
	float p, int mode)
	{

	int res;
	uint256_t var = 0;
	int tmp[32];
	//uint256_t ram[32];
	FIX_T ram[1][784];

#ifdef WEIGHT_ENABLE
	static const FIX_T w1[784][50] = 
			{{-0.0506432, -0.0816629, 0.00575621, -0.0680464, 0.0574224, 
			0.00528468, -0.0819206, -0.0377528, -0.0682997, -0.0439409, 
			0.0665867, 0.034563, -0.0488985, 0.00454066, -0.00730166, 
			-0.025426, 0.0285742, 0.0093097, -0.0600581, 0.0512275, 
			-0.00912077, -0.0686677, -0.031499, -0.00633602, -0.0759208, 
			0.075516, 0.0362972, -0.0458166, 0.0550113, 0.0291093, 
			0.0501721, 0.0840996, 0.0393662, 0.0445718, 0.0431563, 
			-0.0160084, -0.054477, -0.0486981, 0.0696162, 0.0313405, 
			-0.0608995, 0.0262719, -0.0788695, -0.0817673, -0.054355, 
			0.0475134, -0.0664847, -0.0523838, -0.0341666, 0.00165969},
			{0.0686562, -0.077935, -0.083474, 0.010832, -0.0186625, 
			-0.0489879, -0.0324275, 0.0800388, 0.0630288, 0.0357474, 
			-0.0720009, -0.0526213, 0.0119368, -0.0642762, 0.0133226, 
			-0.0140133, 0.0369019, 0.00487845, 0.0561714, -0.0633561, 
			-0.0663579, 0.0611181, 0.0595247, 0.0184323, -0.00365666, 
			-0.059247, -0.0324958, 0.0577002, -0.0548159, 0.0488282, 
			-0.00317666, 0.0632097, -0.0352491, -0.0608161, -0.0274678, 
			0.0421708, -0.0358827, -0.0821483, 0.0590698, -0.0612827, 
			-0.0574007, 0.0672742, 0.0290779, 0.0264674, 0.0810577, 
			0.0322994, -0.0189365, -0.0587768, -0.0791846, 0.0423803},
			{-0.026021, -0.0518305, -0.0112002, 0.0193839, 0.0692637, 
			0.00140826, 0.0548863, -0.0414964, 0.0473449, -0.0555414, 
			0.061803, 0.0227589, 0.0325394, 0.0447536, -0.0804037, 
			0.0543769, -0.0042664, 0.0239315, -0.0669347, -0.0423326, 
			-0.0364627, 0.00764348, 0.0216496, 0.0404026, -0.059451, 
			-0.0115868, 0.015022, -0.0748335, -0.0142407, -0.0672592, 
			-0.00519097, 0.0127094, -0.0116404, -0.0220898, 0.0822489, 
			0.0166286, -0.0503297, -0.0169444, -0.0050896, -0.0619293, 
			0.00874235, -0.015917, -0.053985, 0.0431018, -0.0720277, 
			0.0685161, 0.0741831, -0.0605276, -0.0545343, -0.0146085},
			{-0.0296866, -0.00104026, 0.0707613, -0.0267254, 0.0659707, 
			0.0536758, 0.0631328, -0.00604466, -0.0524364, -0.0407607, 
			-0.0573601, 0.0126289, -0.0229761, 0.0837848, 0.0549616, 
			-0.0541639, 0.0421541, -0.0666164, 0.0035409, -0.035044, 
			-0.0818973, -0.0531252, -0.0223826, 0.0543971, -0.0002928, 
			0.0247619, 0.0553129, 0.0751764, -0.0449857, -0.0685352, 
			-0.0801233, -0.0139819, -0.0438039, 0.0361981, -0.0386628, 
			-0.0837775, -0.077486, -0.0291807, 0.0345326, 0.0419142, 
			-0.0259724, 0.0413693, -0.0293242, 0.0340581, 0.0791328, 
			0.0455073, -0.0176663, -0.0331969, 0.0228327, -0.0402143},
			{0.0204556, -0.0578505, -0.0803692, 0.0221396, -0.0191887, 
			-0.0227098, -0.0543922, -0.00428666, -0.0600695, -0.0622463, 
			0.00750087, -0.0234663, 0.0435229, -0.0660876, 0.0149188, 
			-0.0521725, 0.0717607, -0.0564239, 0.0201634, 0.0452994, 
			0.0799363, -0.0554745, 0.0226678, 0.0483686, -0.0813079, 
			-0.0198368, 0.0380177, -0.0323602, 0.0812471, 0.0167856, 
			-0.0290043, 0.0398489, -0.0594179, 0.0395604, -0.0447552, 
			-0.0206581, -0.0589232, 0.0154309, -0.0745889, -0.0109148, 
			0.021021, -0.0718868, -0.0810794, 0.0204065, 0.00396248, 
			-0.0459707, 0.0166717, 0.0639358, -0.0133393, -0.0201206},
			{0.0200599, 0.0280529, -0.0627088, 0.0567864, 0.0623758, 
			0.0411626, -0.0779516, 0.0139776, -0.0381815, -0.0392614, 
			0.0132801, -0.0325308, 0.0434084, 0.00888655, -0.0204683, 
			-0.0532827, 0.0576691, 0.0303536, -0.0223619, 0.0141132, 
			-0.0322983, -0.0149926, 0.0517502, 0.0756509, -0.00775103, 
			0.0293315, -0.0104516, 0.0588252, -0.0619143, 0.0825392, 
			0.0169735, 0.069595, 0.0122182, -0.0643668, 0.00444816, 
			0.0693274, 0.00683948, 0.0574542, -0.0622647, 0.0821448, 
			-0.0543877, 0.0397731, -0.057892, 0.0838313, -0.0482415, 
			0.033757, -0.0181072, 0.0651034, -0.0721517, 0.0685648},
			{0.0613194, -0.0308098, 0.0763983, 0.0797988, -0.047588, 
			-0.0488111, -0.0190392, -0.0152129, 0.0113734, -0.0687456, 
			0.0791735, -0.0483269, -0.0330209, 0.0701923, -0.0219733, 
			-0.0599182, 0.00562064, -0.0793348, 0.0394902, 0.0348406, 
			0.042397, -0.0508182, 0.066911, -0.0732515, -0.0126341, 
			0.0231529, 0.00545772, 0.0787893, -0.050903, 0.0399136, 
			0.0376218, -0.0508981, 0.0379093, -0.0753605, 0.0724244, 
			-0.0532517, 0.0827234, 0.0489114, 0.0745809, -0.00987615, 
			-0.000446633, -0.00415652, 0.0501519, 0.00196859, -0.0580491, 
			0.00180511, 0.00621665, 0.00813095, -0.0603188, 0.0544181},
			{-0.0738657, 0.0508091, 0.016649, 0.00410794, -0.0442257, 
			-0.0559448, 0.043092, -0.0649796, -0.0818123, 0.0551828, 
			0.0449704, -0.00150928, 0.0564743, 0.00624446, -0.0319909, 
			-0.0678888, 0.0311763, 0.0538145, 0.0566027, 0.0642198, 
			0.00946325, -0.0520699, 0.0168088, 0.0268475, -0.0687142, 
			-0.0701333, -0.0170021, -0.0783738, -0.00313061, -0.01982, 
			-0.00814413, 0.0244811, -0.0366743, 0.0168946, 0.028902, 
			0.0231074, -0.0493552, 0.0694113, -0.0601978, 0.0785168, 
			-0.0301189, -0.0308686, 0.0527072, -0.069849, 0.015202, 
			-0.0634636, -0.0659092, -0.015595, 0.0253227, -0.0827333},
			{0.01387, 0.0629361, 0.0416893, -0.0588067, -0.0326454, 
			-0.0634159, 0.0436939, -0.0594954, -0.0727291, 0.0509087, 0.0669876, -0.0631625, -0.0473345, -0.0474277, -0.0255028, 0.0316002, 0.044671, 0.00664761, -0.0296252, -0.0698694, -0.00606486, 0.0685493, -0.0188254, 0.0379834, 0.0517351, 0.0769775, -0.0644048, 0.0820026, -0.0799461, -0.0704743, -0.0329734, -0.0431464, -0.0548072, 0.000561759, 0.0134708, -0.0302798, 0.0585563, -0.0339369, 0.027132, -0.00614864, -0.0381123, -0.0806353, 0.0257828, 0.025669, -0.049623, -0.0646404, -0.0574945, -0.0765061, -0.050583, -0.0477211},
{-0.0623666, 0.0557993, -0.0414903, 0.0241128, 0.0746829, 0.0327237, 0.0321236, -0.0428712, 0.00581989, -0.0486795, 0.0108917, -0.00396448, -0.0737118, -0.0510317, 0.0585133, 0.0389031, -0.00283979, -0.0781512, 0.014827, -0.0126746, -0.0333065, 0.0801033, 0.040488, -0.0465802, 0.0301227, -0.0383669, -0.0294396, -0.0770706, -0.0647402, -0.0102847, -0.0446186, -0.0524934, -0.078127, -0.0238674, 0.055621, -0.0675212, -0.0436248, 0.048525, 0.0268452, 0.0406535, 0.00149587, 0.0785775, -0.053548, -0.0687256, -0.00190153, 0.020009, 0.0642732, 0.00513609, 0.0364626, 0.0138059},
{0.069246, 0.0109, 0.0174062, 0.0715908, -0.0465254, -0.0652427, -0.0125155, -0.0601246, 0.037455, -0.0178693, 0.00568446, 0.0793036, -0.0137459, -0.0830971, -0.0476022, -0.0744459, 0.0101724, 0.00254519, -0.00800643, -0.0597558, -0.0780922, 0.0366855, -0.06579, 0.0425777, 0.0191446, -0.0642703, -0.0346365, 0.0110179, 0.0487654, 0.0328434, 0.0714414, 0.0475857, -0.0333826, -0.0826183, 0.039994, 0.073847, 0.0430151, -0.0732871, 0.0359088, 0.0627982, -0.0543277, 0.0580624, 0.0351993, -0.0153486, 0.0554897, 0.0718279, -0.0450545, 0.00503714, 0.0147917, -0.0279411},
{-0.046947, 0.0576661, -0.0776771, 0.0737601, -0.0374919, 0.0537689, 0.0574567, -0.0814093, -0.00686529, -0.0701137, 0.0192932, 0.0485111, -0.0234121, 0.0224683, 0.0584262, 0.015275, 0.0212285, -0.00239615, 0.0684015, 0.0357893, -0.0799883, -0.0424944, 0.0446733, 0.00892924, -0.000872195, 0.0663085, -0.0351536, -0.0325523, 0.000195228, 0.0460857, -0.0361026, -0.0711518, -0.0645763, 0.00577851, 0.000263318, -0.0604024, -0.0622082, -0.033612, -0.0660803, -0.0135632, -0.0615855, 0.01647, 0.0271144, -0.0341636, 0.0686686, 0.00683624, -0.022174, -0.0137096, 0.0705711, 0.0834808},
{-0.0177812, 0.0327628, 0.0338537, 0.103569, 0.0714201, 0.0225903, 0.04879, -0.0336154, 9.30525e-05, -0.00138412, -0.00796679, -0.0561068, -0.0417319, -0.0174402, 0.0438309, 0.0807614, -0.0790558, 0.026486, 0.106862, -0.0133595, -0.0572476, -0.00183497, 0.0805008, 0.0268847, -0.102973, 0.069076, 0.0631795, -0.132662, -0.0124518, -0.0116698, -0.156454, -0.0748357, -0.0011191, -0.00703065, -0.0851239, 0.0101933, -0.0294807, 0.110959, 0.0612342, -0.0792116, -0.138716, 0.00122442, 0.0210507, 0.16019, -0.177988, 0.009859, -0.014465, 0.0651445, -0.00339846, 0.0404382},
{-0.0493236, 0.0271997, 0.06178, 0.0219691, 0.116752, -0.0311061, 0.155298, -0.147477, 0.0593637, -0.100323, 0.0309916, -0.0602221, -0.0311107, -0.0441915, 0.027019, 0.102994, -0.0878813, 0.0328172, 0.00171661, -0.16744, 0.0205207, -0.0210725, 0.161971, 0.024646, -0.0876899, -0.0240049, 0.0195804, -0.109447, 0.0556311, -0.0472173, -0.087436, -0.045374, 0.0300046, -0.0284968, -0.0447304, 0.0613326, -0.100623, 0.108913, 0.021369, -0.0969849, -0.0508756, 0.0155409, 0.157638, 0.108143, -0.0724035, 0.0612448, -0.152625, 0.0617768, -0.0104079, 0.0582518},
{0.0386964, -0.00102642, -0.065099, 0.0318823, 0.0123004, -0.0700193, -0.141155, -0.0295947, 0.0464684, 0.00137685, 0.0181498, -0.0229299, -0.0193508, 0.0281343, 0.00340908, -0.0627948, 0.0185714, -0.0544454, 0.138921, 0.0749892, -0.0634146, -0.0841546, 0.139633, -0.0809595, -0.013777, 0.0805809, 0.019742, -0.0595077, 0.0698877, -0.0310008, -0.0986527, -0.0286262, -0.0201683, -0.0174242, -0.00997433, -0.009149, 0.0135165, -0.0621124, 0.0713018, -0.0523335, 0.0340965, 0.033293, -0.040292, 0.0403956, 0.0175503, 0.0233417, -0.0312196, -0.0147379, 0.0798203, 0.126306},
{-0.0814679, -0.0161894, -0.00461155, -0.0475827, 0.042236, -0.0199329, 0.0139915, -0.0530477, -0.0576652, -0.0228764, 0.058971, 0.0625056, -0.000766385, 0.0034334, 0.0628169, -0.0153257, -0.0621345, -0.0250862, -0.0684919, -0.0453902, -0.079326, 0.0538938, -0.0491557, 0.044173, 0.0357593, -0.0595449, 0.0498767, 0.0386914, 0.0750489, 0.0718358, -0.032984, 0.00846053, -0.082227, -0.0258103, -0.0638572, -0.0652252, 0.049002, 0.0362013, 0.081426, -0.02154, 0.0537736, -0.0569037, 0.000931686, 0.0662741, 0.0174763, -0.0226118, 0.0482421, -0.00818481, -0.0524142, 0.0992042},
{-0.0713975, -0.0514291, -0.0449221, -0.0235617, -0.0240191, 0.0196725, -0.0226126, -0.0635469, -0.0268834, -0.0814286, 0.0530848, -0.0382833, -0.0839348, -0.0272424, 0.067945, 0.0714623, -0.0561369, 0.00494871, 0.0289215, 0.0212969, -0.0204822, -0.0108186, 0.0204648, -0.0116701, -0.00895707, 0.0141561, 0.0651002, -0.0763833, -0.03004, 0.0141505, -0.0308208, 0.0625228, 0.047696, -0.0150863, 0.0564094, -0.0345658, -0.00721589, -0.0260321, 0.0777522, 0.044809, -0.0408319, 0.0834827, -0.0700358, 0.0679891, 0.0754026, -0.0605873, -0.0783101, 0.0306493, 0.0444135, 0.0581581},
{0.0256714, -0.0382886, 0.0585659, -0.0687455, 0.0416984, -0.0647213, -0.00338808, -0.0417687, -0.0721072, 0.00956669, -0.0646974, 0.0751825, -0.0300024, -0.0213355, -0.0604597, -0.0260784, 0.0749613, -0.0502189, -0.0656029, 0.0517318, -0.0237057, 0.0496232, 0.034008, 0.0196819, 0.0137695, 0.072967, 0.00734854, 0.0450609, 0.0240387, 0.00462593, 0.0717597, 0.0349615, -0.0560924, -0.0122158, 0.0628994, 0.0148592, 0.0814183, 0.0621879, -0.0289463, -0.0619641, 0.0388464, -0.0738159, -0.0587128, 0.00393938, -0.0831892, -0.00837421, -0.0306538, -0.0338693, -0.051342, 0.0552329},
{0.0023839, 0.05571, -0.0637937, 0.0752873, 0.00690123, 0.0353941, -0.0604044, -0.00529049, -0.0150049, -0.0101334, 0.0429663, -0.0418408, -0.0370753, -0.0429003, 0.0120072, -0.0247546, -0.00841933, 0.0401878, -0.0830241, 0.0816625, 0.0613314, -0.00556998, -0.0297054, -0.00843828, -0.0723106, 0.065496, 0.0464167, 0.0427841, -0.0133679, -0.017591, 0.0813096, -0.0501679, 0.0632794, -0.0660907, 0.0724375, 0.0512485, 0.00992946, -0.0557706, -0.0325011, 0.0174871, 0.00361526, 0.0223425, 0.0840471, 0.0683363, -0.0709434, -0.051208, 0.0715426, -0.032658, -0.0394535, 0.0236192},
{0.00835121, 0.0618461, 0.084584, -0.0223822, -0.0806196, 0.0491338, 0.0201373, -0.0581699, -0.00191973, -0.0412909, -0.000226997, -0.0219834, -0.0130673, 0.05763, 0.0835318, -0.0445856, 0.0735993, 0.0369025, 0.0549075, -0.0458881, 0.026001, -0.00620577, -0.070513, -0.0260075, -0.00619245, 0.0542828, -0.0532409, 0.0526533, 0.00728801, 0.0617994, -0.0545629, 0.0369114, 0.038354, 0.0692693, 0.0619934, 0.0450223, -0.070672, -0.0290829, -0.0648102, 0.0222572, -0.0490177, 0.0568123, -0.0688913, 0.0454353, 0.0622945, -0.0691971, -0.0451688, 0.0446536, 0.0625493, 0.0120023},
{0.00146588, 0.080296, -0.0536518, -0.013946, -0.0146151, -0.0530486, 0.0781883, 0.051392, 0.00820714, 0.00737938, 0.035736, -0.0713443, 0.0069185, -0.00659378, -0.0489704, 0.0752282, 0.0830699, -0.0730114, -0.00334843, 0.0716047, 0.0799957, -0.0805667, 0.0549404, 0.017105, -0.0785173, -0.064449, -0.0306144, -0.060631, -0.0683009, 0.0308115, 0.081124, 0.0835755, -0.0753111, -0.0651145, -0.0394818, -0.0692986, 0.0791924, 0.041291, -0.00809301, 0.0790299, 0.0521246, 0.00804273, -0.0499331, 0.0575219, -0.0787102, 0.0392849, -0.0266537, -0.0839363, -0.0381683, -0.0571578},
{-0.0592621, -0.0532818, -0.0416818, -0.0310363, -0.0676534, 0.0174744, -0.0718732, 0.0704385, 0.0381497, -0.0036039, -0.0166162, -0.054343, 0.037015, 0.00376335, 0.000758827, -0.00824099, -0.0531925, 0.0824753, -0.0535141, -0.0197739, -0.0797108, 0.0533822, -0.0169858, 0.0308106, 0.0774111, -0.00734043, -0.00862275, -0.00854352, -0.0451284, -0.0301821, -0.0657069, 0.00262354, -0.0314106, 0.0249549, -0.0160143, 0.0771462, -0.0451925, 0.0391571, -0.00760572, -0.0381928, 0.0299827, 0.0754818, 0.0193393, 0.0753908, 0.0433283, 0.0814113, -0.0626927, -0.0286273, 0.0568901, -0.0342967},
{-0.00615592, -0.0108023, -0.0326249, -0.0755451, 0.0215149, -0.00996469, -0.0604971, 0.0135054, -0.000405319, -0.0640008, 0.00185631, -0.0830372, 0.0828006, 0.0482642, 0.081902, -0.0605703, -0.0067363, 0.032337, -0.0486168, -0.0350962, 0.0684429, 0.0610903, -0.0646278, 0.0604737, -0.0227012, 0.0668344, -0.0419982, -0.0293047, -0.0838961, -0.0296242, 0.0621503, -0.0709599, -0.0719428, 0.0369619, -0.0673576, -0.0526683, 0.00815845, -0.0347616, 0.0437518, 0.0201957, -0.0757058, 0.0312719, -0.0237133, 0.0715797, -0.0171798, -0.0247923, 0.052276, 0.0343565, -0.0372208, -0.0540531},
{-0.0258418, -0.0433095, 0.0703476, 0.0632793, 0.0814197, 0.0710028, 0.0694496, 0.0404053, 0.0598232, 0.0527699, -0.0821102, -0.0272056, 0.00687102, -0.0106228, 0.0368925, 0.017962, -0.0827549, -0.00741103, 0.0286953, 0.0300681, 0.0628702, 0.0016351, -0.030926, -0.0514184, -0.000340849, -0.0563663, -0.0680718, 0.0596837, -0.00503032, -0.0567417, 0.0734928, 0.0740498, 0.082077, -0.0452841, 0.0193557, 0.0296428, 0.0337072, 0.07612, 0.0422388, 0.0509575, -0.0576467, -0.0843234, -0.0774116, -0.0796038, -0.0465389, -0.0453398, -0.024512, 0.00127059, 0.0695997, -0.0733878},
{0.00860548, -0.036064, -0.0846734, 0.0259831, -0.0098336, -0.0747914, -0.0708453, -0.0491858, -0.0708474, 0.0654384, -0.025805, 0.0662472, 0.0194174, -0.0159327, -0.00450013, 0.020411, 0.0358149, 0.0767647, -0.0586052, 0.0736111, -0.0380278, 0.0722572, -0.017738, -0.0215586, 0.0605842, 0.00600332, -0.0501995, 0.0288197, 0.0233032, -0.0146526, 0.0203178, 0.0082183, -0.0165419, -0.0594397, 0.0705999, 0.0553778, 0.0603924, -0.0722679, 0.0177384, 0.0657358, 0.0216993, -0.0260987, -0.0115551, -0.00289902, -0.0120882, -0.00209694, -0.0533938, -0.0754821, -0.0450922, -0.0769554},
{-0.0287681, 0.0243454, -0.0691334, 0.0251894, -0.0277991, 0.0111701, -0.084523, -0.0111185, 0.0409309, -0.0772787, -0.0559098, -0.00734684, -0.0700507, 0.0757041, -0.0593755, -0.0174822, -0.0740064, 0.0752033, -0.00395826, 0.0328388, 0.0157724, -0.05471, -0.0237576, -0.0675869, -0.0630191, 0.00499928, 0.0194714, 0.0763933, 0.0158718, -0.0132294, 0.0788912, -0.0398601, -0.0660263, 0.0458387, 0.065514, 5.80773e-05, 0.0754263, -0.0345029, 0.0807635, 0.0687633, -0.0490199, -0.0494054, -0.00269876, -0.0680628, 0.0213113, -0.0292875, 0.0751669, -0.0643117, -0.0200042, -0.032694},
{0.0471095, -0.0802284, -0.0354511, -0.00872823, 0.00936607, 0.0378937, -0.0822522, -0.0479079, 0.00286264, 0.0625714, -0.0587995, 0.0723962, -0.0440865, -0.0655497, 0.000377044, 0.0490269, -0.0411515, -0.0748821, 0.0144416, -0.00655141, 0.0117994, -0.0740695, 0.0428871, -0.0438494, -0.0652698, 0.0384001, -0.05082, -0.0256202, -0.0121218, 0.0548868, -0.0152327, 0.0697497, 0.0174539, -0.00185359, -0.0747654, -0.0671861, -0.00668162, -0.0626237, -0.0414603, 0.0784982, -0.0327589, -0.0415804, -0.0215481, 0.0264085, -0.0729069, 0.0104126, 0.0212129, -0.0618119, -0.0353867, -0.0715116},
{0.0607041, -0.0844208, -0.0640185, 0.0695883, -0.0361078, 0.0759903, -0.046563, 0.083335, 0.0568768, 0.0788525, -0.00013274, 0.0533537, 0.0428999, 0.0804164, 0.046083, -0.0831596, -0.0564678, -0.0586531, 0.0360692, 0.0229843, -0.0677123, -0.0056739, 0.00103132, 0.0359372, 0.016457, 0.0159394, -0.0314568, -0.0301708, -0.0844897, 0.0830384, -0.0317949, -0.0283538, -0.0822174, -0.0191385, 0.0180332, 0.00474359, -0.0124434, -0.0814472, -0.0258861, -0.0651622, 0.0403406, 0.0117124, 0.0196951, 0.0726555, 0.00647772, -0.0629671, 0.0126874, -0.00273158, -0.0790951, 0.0750243},
{0.0847426, 0.0285725, -0.0517758, -0.0683019, -0.0602144, 0.0467656, -0.0264497, -0.0528981, -0.0308199, -0.05522, -0.0018437, -0.0117877, 0.0381883, -0.00910982, 0.0180799, -0.0410063, 0.0438252, 0.0746957, 0.0558255, 0.0544566, 0.0549136, -0.03012, -0.0481792, 0.0467927, -0.0180084, -0.0513167, 0.0785851, -0.00796399, -0.0280673, -0.00515611, -0.0251489, -0.033218, -0.0579425, -0.0820352, -0.0151965, -0.00996677, -0.0575865, -0.0114651, -0.0255041, 0.0573538, 0.057345, 0.0425912, -0.020264, -0.0433447, -0.0187445, 0.0822988, -0.0785214, 0.00992295, -0.0374363, 0.0801757},
{0.0709757, -0.00281263, 0.073807, -0.0246748, -0.00499208, -0.0187367, -0.00870024, 0.0116561, -0.0088017, -0.0234256, -0.0116039, -0.0641328, -0.0760041, -0.0330125, 0.0743987, 0.0563613, 0.00492011, 0.0698684, -0.0557792, -0.0110151, 0.0118473, 0.0524857, -0.0669872, 0.0845263, -0.0314659, 0.0440587, 0.0416854, 0.0838652, 0.0502646, -0.0230115, 0.050924, 0.0739586, -0.0833224, -0.0701032, -0.0481039, 0.0387586, -0.0520501, 0.0269452, 0.0520344, -0.0754225, -0.0676994, 0.000484347, 0.0670895, 0.0254115, 0.05464, -0.0842879, 0.0134029, 0.0704234, -0.0522408, -0.0653065},
{0.030239, -0.0482421, -0.00131136, -0.0359177, -0.006805, -0.0337453, 0.0115306, 0.0613679, -0.00497399, -0.0806752, -0.0796277, -0.0775214, -0.025746, 0.0831031, -0.0333357, -0.0593474, 0.0326865, 0.00125193, 0.0556658, 0.0280519, 0.0117163, -0.0109352, 0.040879, 0.0418948, -0.0633147, 0.0658308, 0.0594128, 0.0431822, 0.0456246, -0.0148495, -0.0210583, 0.00415574, -0.0824455, 0.00126493, -0.0332251, -0.0221482, 0.047485, -0.0219815, 0.0123368, 0.0808902, -0.0384015, 0.0384676, -0.0846608, -0.0466917, 0.0624798, -0.0647802, 0.0181803, -0.0828275, 0.00258252, 0.0115297},
{0.0765723, 0.00828061, 0.0211345, -0.0272536, 0.00256661, 0.00788071, -0.0379112, 0.00198788, -0.0052232, -0.0182156, -0.0319116, 0.0489821, 0.0105173, -0.0214122, -0.0689495, -0.0331813, 0.0605362, 0.0415792, 0.05702, 0.0509693, -0.0741431, -0.0193258, -0.0755271, 0.0735137, 0.0337278, -0.0741096, 0.061728, -0.0706949, -0.013915, -0.0574578, -0.0233727, -0.0432858, 0.0535879, 0.0447341, -0.0828434, 0.0824994, -0.0716606, -0.0341967, 0.05222, 0.0797064, -0.0304274, 0.0381318, 0.0754834, -0.0173854, -0.029322, 0.0586171, 0.0741227, -0.0197965, -0.00113565, -0.0496288},
{-0.0509938, 0.0705655, 0.0602436, 0.0758432, 0.078601, 0.0413766, -0.00991081, -0.0793368, -0.0400269, 0.0208634, -0.0260608, -0.0238264, 0.0024936, -0.0732491, 0.0869375, 0.0468705, 0.0415464, -0.0639854, -0.060929, -0.0464125, -0.0392288, 0.00269722, 0.0734821, -0.0225717, -0.0286392, -0.0858734, -0.0494089, 0.060114, -0.0105564, -0.0237257, 0.0622545, 0.0176835, -0.0158052, -0.0512366, 0.0282864, -0.0429033, -0.0295218, 0.0566035, 0.00754614, 0.0451463, 0.0606785, -0.069297, -0.0181565, -0.0292167, -0.0818911, -0.0881329, 0.081831, 0.0902222, -0.033107, -0.0590341},
{-0.0101307, -0.0811793, -0.0603576, 0.0286716, 0.0354023, 0.0548496, 0.0749822, 0.0412926, 0.0679667, -0.0133423, 0.00451243, -0.0283447, -0.0605369, -0.0191085, 0.095537, 0.0419922, -0.0706082, -0.0789721, 0.0407457, -0.105859, -0.00650118, 0.0226525, -0.0203381, -0.0108062, -0.0833633, -0.0546523, -0.025134, -0.0096727, 0.0389139, -0.0665898, -0.0228018, -0.0460125, -0.0758968, -0.0797655, 0.037852, 0.00370332, -0.119206, -0.0378988, 0.00183336, -0.0949418, -0.0703028, 0.0261041, 0.0790954, 0.0959703, -0.022468, -0.0666714, 0.0217572, 0.0733034, -0.0743423, -0.0681217},
{-0.283627, 0.00869214, 0.170141, 0.152835, -0.0273758, -0.0151176, 0.199472, -0.212508, 0.0874522, -0.146144, -0.0142354, -0.276532, 0.133908, -0.0723886, 0.172679, 0.28918, -0.185796, 0.100791, 0.139168, -0.267916, 0.0512704, -0.0766173, 0.213585, -0.0670775, -0.200431, -0.0458489, -0.0225287, -0.291886, -0.0196522, -0.222291, -0.169759, -0.179744, 0.00500387, -0.0798528, 0.0781578, 0.0809297, -0.127611, 0.227675, 0.032079, -0.055392, -0.325129, -0.123846, 0.288787, 0.180108, -0.230465, -0.0707728, -0.199998, 0.103005, -0.163025, -0.00172022},
{-0.297978, -0.000893708, 0.124188, 0.238565, 0.0224784, -0.00181904, 0.131562, -0.312841, 0.0601819, -0.310011, 0.0674609, -0.118727, 0.0783449, -0.0591698, 0.19386, 0.276498, -0.242129, 0.0283176, -0.019693, -0.354432, -0.0850778, -0.128073, 0.184946, 0.0821426, -0.297052, -0.0424705, 0.0699972, -0.314216, 0.0659148, -0.131568, -0.148569, -0.287886, -0.0484992, -0.0913974, -0.0694877, 0.194896, -0.265086, 0.28049, 0.142794, -0.180213, -0.350509, 0.025973, 0.162891, 0.241287, -0.274938, -0.0139166, -0.114689, 0.238172, -0.386312, -0.00617873},
{-0.281016, -0.0617819, 0.135777, 0.237112, -0.0880654, -0.0418312, 0.120395, -0.235626, 0.0683141, -0.115891, -0.0584994, -0.212465, 0.0633789, -0.0346741, 0.251061, 0.108943, -0.372283, -0.0370061, 0.105223, -0.240271, -0.125783, -0.184138, 0.220752, -0.0904972, -0.285656, -0.0367328, 0.0294846, -0.199831, -0.0763559, -0.199416, -0.133545, -0.0931056, -0.0414896, -0.0751127, -0.144088, 0.170285, -0.297438, 0.278952, 0.10284, -0.228205, -0.306213, 0.142478, 0.252276, 0.163994, -0.16796, -0.148687, -0.235486, 0.260499, -0.350111, 0.0640776},
{-0.241904, -0.128544, 0.0130622, 0.303772, -0.0192877, 0.0321826, 0.173353, -0.163206, 0.123511, -0.237571, 0.0205174, -0.219249, 0.0518911, 0.013002, 0.135734, 0.0343862, -0.322305, 0.0315661, 0.0501296, -0.280962, -0.0989287, 0.0114449, 0.142141, -0.0589054, -0.130346, -0.0744509, -0.0213447, -0.24224, -0.0104846, -0.0843933, -0.216709, -0.135601, 0.0512541, -0.104228, -0.162514, 0.160344, -0.392853, 0.0742623, 0.146032, -0.25778, -0.192778, 0.0784255, 0.344279, 0.197399, -0.181073, -0.159689, -0.197706, 0.223739, -0.169549, 0.0258501},
{-0.244913, -0.140037, 0.20866, 0.2935, -0.0334559, -0.0851399, 0.288115, -0.0777692, 0.189135, -0.222738, 0.0130772, -0.252934, 0.183919, -0.100652, 0.21358, 0.121553, -0.343872, 0.102289, 0.252705, -0.267812, -0.0395294, -0.0673002, 0.260337, 0.0275495, -0.261234, -0.0908506, 0.139771, -0.194247, -0.0689964, -0.259377, -0.32088, -0.206182, 0.00412601, -0.0369629, -0.291127, 0.179352, -0.36153, 0.235188, 0.127939, -0.273326, -0.31552, -0.049735, 0.266117, 0.227827, -0.295905, -0.229799, -0.327327, 0.33645, -0.2897, 0.0395994},
{0.0310326, 0.0517642, -0.086184, 0.267639, 0.007239, -0.0172231, 0.200932, -0.0916162, -0.166161, -0.208928, 0.0683915, -0.0577146, 0.00875224, -0.0444263, 0.290121, -0.050577, -0.470796, 0.0932749, 0.0834071, -0.0348469, -0.112326, -0.0420884, 0.244808, 0.0480082, -0.148018, 0.0590704, -0.00858045, -0.378863, -0.170867, -0.168465, -0.396774, -0.139744, -0.0397503, -0.0709908, -0.140422, 0.00158, -0.471725, 0.315174, 0.158035, -0.472938, -0.193469, -0.150924, 0.301761, 0.115945, -0.339649, -0.260136, -0.00822061, 0.394379, -0.245937, -0.0670042},
{-0.103627, 0.0369759, -0.134316, 0.379154, -0.110074, -0.0209251, 0.203526, -0.119532, -0.00571409, -0.265691, 0.0107378, -0.170461, 0.116844, -0.0456333, 0.373451, 0.0875889, -0.428264, 0.0830608, 0.197475, -0.0629577, -0.169451, 0.0139791, 0.395494, -0.0254711, -0.318234, 0.0713178, -0.000173491, -0.450921, 0.0631707, -0.243417, -0.356574, -0.142931, -0.0894664, -0.151257, -0.14049, 0.161161, -0.547199, 0.279511, 0.239135, -0.464819, -0.221272, -0.0841465, 0.280336, 0.0107915, -0.298671, -0.443304, 0.0486715, 0.306742, -0.416789, -0.129546},
{-0.0168363, 0.0571451, -0.122567, 0.233609, 0.0980911, -0.138231, 0.22217, -0.0965772, -0.163579, -0.138486, 0.0955483, -0.104188, -0.0162446, -0.0247015, 0.248599, -0.0646597, -0.431368, -0.0528815, -0.0112379, -0.0127914, -0.0858224, 0.16589, 0.0530258, -0.0728709, -0.208739, 0.117533, -0.119676, -0.574993, 0.0254811, -0.206923, -0.220339, -0.102899, -0.141808, 0.0273869, -0.270326, -0.0150142, -0.297896, 0.139655, 0.111422, -0.266274, 0.00999704, 0.00844362, 0.413296, 0.0400447, -0.423463, -0.25425, 0.0590304, 0.296922, -0.50228, -0.0265394},
{0.109054, 0.150444, -0.0771168, -0.0172419, 0.0830593, -0.277464, -0.0603406, -0.0281242, -0.210664, -0.103774, -0.0666068, 0.0614043, -0.110734, 0.151142, 0.05029, -0.143573, -0.192012, 0.00721988, -0.175992, 0.0882182, 0.291593, 0.0395302, -0.123794, 0.0880949, -0.0586621, -0.193246, 0.0158163, 0.151046, 0.241238, -0.0996996, 0.067196, 0.0912874, 0.164312, 0.119422, -0.364062, -0.141776, -0.0645804, -0.047992, 0.177723, -0.00801022, 0.0895178, -0.045656, 0.0668985, -0.00626548, 0.0737202, -0.221461, -0.0943151, -0.104444, 0.119682, -0.0336728},
{0.143964, 0.0368206, -0.0020207, 0.219503, 0.13044, -0.187495, 0.0265394, -0.280007, -0.223418, -0.264822, -0.023667, -0.117026, -0.074664, 0.18202, 0.195178, 0.123114, -0.219431, 0.259164, 0.0485447, 0.00423585, 0.0562002, -0.0293371, 0.355148, 0.0792762, -0.274109, 0.0932254, -0.305112, -0.0235797, 0.208052, -0.187606, -0.155928, -0.15974, -0.0658153, 0.162076, -0.0891962, 0.182773, -0.26585, -0.00998824, 0.220838, -0.342007, 0.0743795, -0.133304, 0.346787, -0.121211, 0.0692978, -0.181651, 0.0121744, 0.0128167, 0.115004, 0.0309681},
{0.138369, -0.167841, -0.273764, 0.26869, 0.0159777, -0.0872858, -0.216404, -0.355634, -0.269142, -0.25347, 0.00929233, -0.209805, -0.104577, 0.118957, -0.129666, 0.0699945, -0.0638164, 0.22544, 0.354544, 0.0941418, -0.0187728, -0.0258598, 0.324743, -0.149163, -0.224206, 0.254932, -0.0698729, -0.209194, -0.182984, -0.239923, -0.360677, -0.203161, -0.288947, 0.224954, 0.0462105, 0.0323835, -0.343248, -0.123695, 0.248094, -0.194765, 0.207618, -0.19505, 0.445339, -0.2098, 0.0532475, 0.0160156, 0.264532, -0.00795887, -0.172859, 0.291733},
{-0.0318116, -0.12704, -0.136562, 0.421763, -0.0204749, -0.0425471, 0.160195, -0.29747, -0.146142, -0.201802, 0.0405116, -0.202323, 0.00591608, -0.00441972, 0.195546, 0.0110089, -0.306483, 0.117557, 0.197128, -0.0451822, -0.0869329, -0.0623569, 0.512505, -0.143096, -0.186556, 0.245957, -0.105913, -0.355482, -0.174617, -0.323997, -0.350465, -0.122623, -0.313181, 0.020102, -0.0184542, 0.144141, -0.423882, 0.163053, 0.240519, -0.266591, -0.0256566, -0.089695, 0.339703, -0.0678429, -0.156602, -0.0673533, 0.126412, 0.150318, -0.217434, 0.126009},
{-0.245813, -0.147079, 0.35928, 0.286286, 0.00346992, -0.0148432, 0.441586, -0.0233271, 0.0598534, -0.168196, 0.00139526, -0.0803099, 0.22934, 0.016347, 0.329294, 0.0722637, -0.378601, 0.301063, 0.328177, -0.321775, -0.219821, -0.269362, 0.347638, 0.143909, -0.238456, -0.109837, 0.132265, -0.461139, 0.251239, -0.199612, -0.446955, -0.163178, 0.221648, -0.136504, -0.300498, 0.217695, -0.552679, 0.341682, 0.134997, -0.313169, -0.372835, -0.152994, 0.451477, 0.33545, -0.264627, -0.170217, -0.40718, 0.386003, -0.169383, -0.00641815},
{-0.275161, -0.235051, 0.321792, 0.342212, 0.128413, -0.11606, 0.363074, -0.208728, 0.153642, -0.230571, -0.0699834, -0.0965069, 0.24971, 0.0469193, 0.397061, 0.238455, -0.310721, 0.20767, 0.368582, -0.407044, -0.147509, -0.254799, 0.311641, -0.00623976, -0.252999, 0.109342, 0.125211, -0.345505, 0.190089, -0.268105, -0.423441, -0.222559, 0.322198, -0.126562, -0.125455, 0.259952, -0.328184, 0.316036, 0.274837, -0.276533, -0.258571, -0.148305, 0.34225, 0.411637, -0.256831, -0.139459, -0.260039, 0.325752, -0.158763, -0.0463579},
{-0.302423, -0.377887, 0.401474, 0.362969, 0.159696, -0.104078, 0.434449, -0.234736, 0.19396, -0.253883, 0.0192544, -0.175898, 0.190671, 0.0472501, 0.282039, 0.330308, -0.42773, 0.277331, 0.270854, -0.335281, -0.0397828, -0.453478, 0.30797, -0.124305, -0.218462, 0.141384, 0.0922306, -0.30927, 0.0977033, -0.203511, -0.442968, -0.235063, 0.33559, -0.140916, -0.0915997, 0.175621, -0.334717, 0.311984, 0.12988, -0.263433, -0.3848, -0.150853, 0.382612, 0.443351, -0.336496, -0.185982, -0.262031, 0.247123, -0.294455, -0.108468},
{-0.208375, -0.0905572, 0.110657, 0.192505, 0.0264436, 0.0248942, 0.264925, -0.141401, -0.0203636, -0.256708, -0.0748985, -0.0771672, -0.00770024, 0.0573043, 0.173038, 0.173724, -0.169405, 0.186313, 0.244603, -0.266525, -0.145837, -0.106365, 0.177855, -0.0671819, -0.0353958, -0.0989161, -0.03095, -0.275121, 0.102593, -0.0970997, -0.175871, -0.153665, 0.235282, -0.0268678, -0.0819177, 0.0957757, -0.239963, 0.318061, 0.124128, -0.100457, -0.211968, 0.0327979, 0.200783, 0.347761, -0.204176, -0.0562557, -0.215452, 0.255167, -0.164602, -0.0446285},
{-0.294612, -0.149048, 0.13645, 0.235105, 0.14298, 0.00605582, 0.166901, -0.0994108, 0.0593299, -0.270792, 0.052345, -0.116403, 0.164834, -0.0658173, 0.165282, 0.136902, -0.249907, 0.179151, 0.155256, -0.269275, -0.114793, -0.179505, 0.296481, 0.0160035, -0.107313, -0.00956231, 0.0757051, -0.234397, 0.128049, -0.224119, -0.207429, -0.147019, 0.136989, -0.12534, -0.0167548, 0.0781754, -0.227783, 0.17493, 0.219423, -0.177338, -0.245941, -0.116407, 0.205566, 0.242216, -0.22868, 0.00666715, -0.140202, 0.129087, -0.140892, -0.0873595},
{-0.181233, -0.0801496, 0.10251, 0.138217, 0.0516343, 0.0137854, 0.235235, -0.0859292, 0.205395, -0.138501, -0.011572, -0.113438, 0.0881206, 0.0711038, 0.0196447, 0.0792961, -0.220422, 0.0563756, 0.0499532, -0.0411148, -0.0678673, -0.0672684, 0.0929001, 0.0839877, -0.193271, 0.154756, -0.0373244, -0.0438522, 0.0850649, -0.15304, -0.112175, -0.115487, 0.0326479, -0.0140746, 0.0149571, 0.105998, -0.150453, 0.0766662, 0.0960396, -0.147275, -0.164824, -0.0850299, 0.0747736, 0.132418, -0.145399, -0.034392, -0.203707, 0.205837, -0.0224997, 0.05354},
{-0.0122939, 0.0811413, -0.0432161, -0.0580333, -0.0794986, -0.0162623, 0.0747382, -0.0517238, -0.0198488, -0.0393242, -0.0837463, 0.0328013, -0.01222, 0.0631392, 0.0758628, 0.0598575, 0.066962, 0.0555667, -0.0823368, -0.078354, -0.080714, -0.0722232, -0.00593594, 0.0374754, -0.0362805, -0.0626194, -0.0516089, -0.029356, -0.0636028, -0.0668585, 0.031085, 0.0523164, -0.0551163, 0.0485236, 0.0324252, -0.045728, 0.042697, -0.0676649, 0.00203375, -0.0711984, -0.0406985, 0.0629467, 0.0676054, 0.00762282, 0.0362964, 0.0357833, -0.0183954, 0.0176203, -0.0415461, -0.014867},
{0.050454, 0.0638548, 0.0224924, -0.0766192, -0.0157021, 0.0546328, 0.00740358, -0.0773934, 0.0743427, 0.0413669, -0.0539723, -0.0409199, 0.053633, -0.037502, -0.0668495, 0.0663943, -0.0597171, -0.00538998, 0.0660484, 0.0757785, -0.0557721, -0.0755308, 0.0481491, 0.024225, -0.0419176, -0.0761569, 0.0596898, 0.0514303, 0.0633866, -0.0380163, -0.0498603, -0.00765086, 0.0659946, -0.071102, -0.0379619, 0.0777093, -0.0625354, -0.0240816, -0.0693885, -0.0421931, -0.0323713, 0.0745001, 0.0650334, 0.063136, 0.0361008, -0.0230287, 0.0702465, 0.0636202, 0.0170439, 0.0761589},
{0.0133629, -0.0811702, 0.00253834, 0.0174223, 0.0374586, -0.0604859, 0.0122806, 0.0552006, -0.0375687, 0.0540485, -0.0722671, 0.067188, 0.0233739, -0.0659366, -0.0574532, -0.030991, 0.0496134, -0.0605295, -0.0843958, -0.0726395, -0.0511184, -0.00526389, 0.0209065, -0.0308194, -0.0235766, 0.0257414, -0.0646246, -0.0733554, -0.0845484, 0.0363594, 0.0397084, 0.033664, 0.0324668, -0.0418725, -0.048208, 0.0826951, 0.0072126, -0.00241025, 0.00410167, -0.0705516, 0.0321303, -0.0752247, -0.0567518, 0.0584481, -0.0209645, 0.0414369, -0.027149, -0.000183314, 0.0209199, -0.0837681},
{-0.000906371, 0.0106881, -0.040254, 0.00486431, 0.0645639, 0.056976, 0.0184386, -0.00207795, 0.0655369, -0.078821, -0.0227336, 0.0110696, 0.0563426, 0.0263055, -0.0185258, -0.00337113, 0.00783867, 0.0775898, -0.0422084, -0.0203769, -0.00410317, 0.0819205, 0.0814484, -0.00881524, 0.027401, -0.0123557, -0.0214207, -0.0673755, 0.034481, -0.0706736, -0.0747975, 0.0359487, 0.0759221, 0.0063232, -0.0226571, 0.0450835, -0.054772, -0.084104, 0.0551353, -0.0634469, -0.00105792, -0.00551742, -0.0325578, -0.010096, 0.019346, 0.0514437, -0.0356193, 0.0622126, 0.0634822, -0.039532},
{-0.0776721, -0.0619932, 0.00583348, 0.0395698, -0.0500186, 0.0581602, -0.0545629, 0.0792453, 0.0270062, 0.0140297, -0.0801852, 0.0499649, -0.0247134, -0.0343961, 0.0486331, 0.0638135, 0.0268961, 0.0211136, -0.0448412, -0.0197422, 0.0073192, -0.0175386, -0.0181138, -0.0383465, -0.0669687, -0.00138392, 0.0534905, -0.003364, 0.0269398, -0.0283765, -0.0119825, -0.0589307, 0.0567735, -0.0202126, 0.00922953, 0.0550847, -0.0484892, -0.0190855, -0.0490506, -0.00240758, -0.0592929, 0.015908, -0.0242071, 0.0775167, -0.0538379, -0.040208, 0.0519923, 0.0362614, -0.010235, 0.00471038},
{0.0311721, 0.080876, -0.0617002, 0.0550443, 0.0194638, 0.0103394, -0.0721297, 0.0328697, -0.0577096, 0.078879, -0.0292872, 0.0618069, -0.0489729, 0.0100255, 0.0238461, 0.0716144, 0.00564933, 0.0434425, -0.0820885, 0.0333082, -0.0570337, -0.0382004, -0.0748007, 0.0536993, -0.0750777, 0.0711472, -0.0736979, -0.00730406, 0.0187756, 0.0843301, -0.077614, 0.0091306, 0.0143795, 0.0610185, -0.0668281, -0.0816096, 0.0165119, 0.0237313, -0.00218212, -0.0576723, 0.0816303, -0.0209415, -0.0379715, 0.0490564, 0.025756, -0.0225916, -0.0735539, 0.0277047, 0.067603, 0.0529625},
{-0.0122524, 0.00386126, 0.0923083, 0.0518665, 0.0648006, 0.020094, 0.0910524, -5.28866e-05, -0.0776093, 0.0369138, -0.0399315, 0.0193892, -0.0100424, -0.0846949, -0.0365933, 0.0451707, -0.0506692, -0.0777775, -0.0425806, 0.00626438, 0.0263566, -0.0416458, -0.00392115, 0.0629544, -0.0201114, -0.0458821, -0.00936171, 0.0584865, 0.0220515, 0.00412182, 0.063905, -0.100794, -0.0454911, -0.0104904, 0.0710882, 0.0311443, -0.0813723, -0.0470835, 0.0637556, -0.0407021, 0.0558208, -0.115008, -0.00635887, -0.0369767, -0.061112, -0.0253191, -0.041297, 0.0113309, -0.0280481, 0.0640527},
{0.020003, -0.0591494, -0.061334, 0.148141, -0.0287775, 0.00308653, -0.128402, -0.0277954, -0.168479, -0.13098, 0.150935, -0.0290397, -0.0317606, -0.0519284, 0.0699978, -0.118285, -0.189326, -0.00475792, 0.137574, 0.0887337, -0.120001, 0.149864, 0.0934072, 0.0121851, -0.0505895, 0.241093, -0.222579, -0.169505, -0.0406777, -0.160553, -0.144702, -0.175102, 0.0439343, 0.188013, 0.108915, -0.0298369, -0.0982836, -0.0346539, 0.0448548, -0.0832754, 0.0288026, -0.0141032, 0.090263, 0.0320463, -0.00748861, -0.0292473, 0.150925, 0.16166, -0.00859681, -0.0159451},
{-0.185955, 0.0772699, -0.0724129, 0.12521, 0.0638347, -0.0338435, 0.180211, -0.0700408, -0.162451, -0.0958646, 0.114185, -0.0355273, -0.0692276, -0.0705522, 0.177386, -0.0699353, -0.206324, 0.190211, 0.130647, -0.166661, -0.113658, -0.065388, 0.247198, -0.0231735, -0.0587741, 0.0800778, -0.120433, -0.194696, -0.0766092, -0.0634683, -0.150917, -0.0486262, -0.0473115, 0.1036, -0.104847, 0.0568266, -0.278901, -0.0143095, 0.00479295, -0.151246, -0.0490032, -0.0700616, 0.168932, 0.0776173, -0.130393, 0.0184059, 0.204708, 0.21239, -0.109668, -0.0305203},
{-0.182436, -0.0724972, 0.0603806, 0.138368, 0.0209105, -0.0714972, -0.000347568, -0.106825, -0.00611348, -0.112998, 0.0126686, -0.147256, 0.0328859, -0.0434755, 0.142063, 0.0646073, -0.0611537, 0.0707231, 0.0178541, -0.0641783, 0.0249916, -0.0517129, 0.115941, -0.0986805, -0.146224, -0.112489, 0.0624261, -0.168332, 0.0197054, -0.0336446, -0.11978, -0.0589146, 0.0923098, -0.0886543, -0.0289798, 0.036632, -0.0904553, 0.120929, 0.0406945, -0.0963122, -0.117885, 0.0592764, 0.171904, 0.099378, -0.207278, -0.0483492, -0.146744, 0.158769, -0.100606, -0.0904906},
{-0.354117, -0.245783, 0.16795, 0.168116, -0.10225, -0.0397953, 0.193104, -0.272902, 0.223524, -0.306207, -0.140164, -0.266122, 0.204083, -0.0171211, 0.133844, 0.263571, -0.38583, -0.0911079, 0.177811, -0.434659, -0.0582387, -0.137921, 0.221254, -0.141699, -0.316397, -0.0432384, 0.217661, -0.405678, -0.13479, -0.287159, -0.199022, -0.330845, -0.026331, -0.123992, -0.137987, 0.167001, -0.385781, 0.211345, 0.0172416, -0.193509, -0.324183, -0.0385181, 0.313862, 0.103944, -0.282337, -0.0862052, -0.188105, 0.400675, -0.394109, -0.0920515},
{-0.388751, -0.225377, 0.29792, 0.331717, -0.033463, -0.00711339, 0.113351, -0.20614, 0.318778, -0.34786, -0.0891324, -0.395385, 0.102887, 0.0138679, 0.348211, 0.331291, -0.491024, -0.0977708, 0.214977, -0.490779, -0.107024, -0.0816256, 0.390479, 0.10352, -0.382633, -0.0424264, 0.178979, -0.499919, -0.0676287, -0.35377, -0.332049, -0.210312, -0.0473709, 0.0124545, -0.204222, 0.263522, -0.584796, 0.274336, 0.0874283, -0.311462, -0.314481, 0.0219225, 0.350304, 0.182156, -0.48359, -0.124835, -0.23387, 0.323548, -0.510546, -0.00657813},
{-0.362316, -0.283298, 0.346223, 0.355012, 0.0897723, 0.256485, 0.100137, -0.315592, 0.387523, -0.476, -0.128043, -0.47369, 0.118674, -0.0968682, 0.239003, 0.383638, -0.35961, 0.016414, 0.362628, -0.341102, -0.291591, -0.143316, 0.389265, -0.26685, -0.32598, -0.142549, 0.29124, -0.707109, -0.177793, -0.433635, -0.280154, -0.361134, -0.0979502, -0.0571905, -0.0776535, 0.060397, -0.671159, 0.041629, 0.261107, -0.307103, -0.510341, -0.00383485, 0.4198, 0.185574, -0.179108, 0.114917, -0.221549, 0.333899, -0.576121, 0.123437},
{-0.64214, -0.537059, 0.252205, 0.423598, 0.159142, 0.226583, -0.045301, -0.476506, 0.400695, -0.466208, -0.22372, -0.183817, 0.0410239, -0.249234, -0.0577228, 0.482914, -0.15871, -0.144397, 0.319543, -0.221057, -0.342718, -0.271145, 0.51259, -0.299855, -0.27244, -0.182398, 0.351493, -0.541899, -0.384289, -0.411404, -0.449861, -0.421248, -0.00881416, 0.0285283, 0.0491711, -0.0311125, -0.676244, -0.0273043, 0.215281, -0.434758, -0.429981, -0.0253593, 0.57724, -0.0174393, -0.0246157, 0.0707578, -0.0648088, 0.0657829, -0.27525, 0.146889},
{-0.586729, -0.474437, 0.359935, 0.504542, 0.00373654, 0.335401, 0.106126, -0.494189, 0.501517, -0.582637, -0.276704, -0.107176, 0.18685, -0.210051, -0.0137396, 0.394534, -0.19705, -0.275247, 0.494655, -0.348256, -0.275442, -0.523964, 0.542484, -0.430833, -0.490632, -0.330703, 0.33129, -0.578773, -0.421196, -0.439249, -0.57824, -0.387906, -0.188976, -0.095568, 0.16444, -0.0231385, -0.757556, 0.0826698, 0.358596, -0.423119, -0.579285, -0.0696609, 0.508905, 0.0280623, -0.21854, -0.121718, -0.195351, 0.0336362, -0.149294, 0.174814},
{-0.561084, -0.244022, 0.400044, 0.579927, -0.030369, 0.113998, 0.251396, -0.579098, 0.392427, -0.602096, -0.22924, 0.0816158, 0.342254, -0.162327, 0.0122024, 0.234041, -0.352183, -0.339321, 0.364538, -0.507575, -0.252617, -0.351652, 0.750049, -0.366222, -0.607709, -0.275417, 0.2547, -0.614558, -0.30729, -0.307146, -0.59129, -0.358225, -0.169599, 0.0482448, 0.0111071, 0.105818, -0.875144, 0.018882, 0.434563, -0.540751, -0.372313, -0.0652928, 0.647533, 0.074541, -0.194435, -0.115699, -0.293724, 0.157279, -0.0935497, 0.231573},
{-0.462664, -0.184071, 0.425422, 0.560294, -0.185928, 0.0675275, 0.263893, -0.283619, 0.0772389, -0.569145, -0.15354, 0.140622, 0.217398, -0.141484, 0.0592261, 0.455055, -0.453115, -0.231443, 0.177809, -0.186044, -0.104071, -0.36388, 0.487993, -0.361012, -0.512792, -0.179767, 0.24501, -0.465805, -0.0248561, -0.493355, -0.624659, -0.139465, -0.306355, 0.273766, -0.0320406, 0.280935, -0.960861, 0.0296579, 0.39368, -0.397685, -0.441813, -0.095036, 0.631205, 0.0600924, -0.277618, -0.240647, -0.313241, -0.0210334, 0.0109042, 0.153813},
{-0.240766, -0.170701, 0.530421, 0.454565, -0.0866302, 0.112404, 0.339418, -0.156509, -0.0395896, -0.365929, -0.297706, 0.152326, 0.103282, -0.153376, -0.0247469, 0.180528, -0.54306, 0.00822277, -0.0949938, -0.177943, -0.023854, -0.0479767, 0.09657, -0.056779, -0.456413, -0.164242, 0.194701, -0.157287, -0.0359846, -0.665212, -0.383223, -0.0131874, -0.259699, 0.209134, -0.28098, 0.0911639, -0.561811, 0.0629897, 0.428652, -0.380198, -0.454126, -0.0409786, 0.567515, -0.0663101, -0.242235, -0.225515, -0.388175, -0.00968563, 0.134363, 0.0568464},
{-0.302014, -0.276904, 0.635314, 0.435166, -0.3166, -0.045528, 0.324792, -0.274883, 0.0664599, -0.46959, -0.428521, 0.0895924, 0.0136516, -0.2039, -0.0191849, 0.199893, -0.481526, -0.195048, 0.0840451, -0.299364, -0.14408, -0.0161181, 0.169038, -0.0816628, -0.342326, -0.355427, 0.381287, -0.318107, -0.091986, -0.62151, -0.436534, -0.0309906, -0.237994, 0.290553, -0.291141, 0.308849, -0.624808, -0.0963072, 0.489233, -0.179173, -0.384069, -0.0311974, 0.428786, -0.00194416, -0.325782, -0.440543, -0.42748, -0.0595076, 0.231418, 0.0897873},
{-0.429277, -0.205089, 0.632987, 0.359843, -0.0909604, -0.330457, 0.311314, -0.412701, -0.188342, -0.311894, -0.330479, 0.107203, 0.0472244, -0.011263, -0.0674714, 0.331324, -0.276141, 0.0228745, -0.0179708, -0.375425, 0.14776, -0.326603, 0.0969787, -0.178157, -0.498498, -0.562455, 0.300457, 0.107352, 0.171005, -0.430223, -0.702978, -0.116882, -0.226813, 0.217751, -0.314382, 0.562889, -0.688719, -0.225768, 0.427337, -0.353856, -0.485379, 0.00229718, 0.271854, 0.0176263, -0.136802, -0.481122, -0.394716, 0.0561924, 0.362694, 0.129168},
{-0.383287, -0.0428283, 0.166223, 0.190616, 0.118039, -0.368294, 0.286644, -0.24412, -0.154258, -0.374751, -0.239142, -0.156334, 0.0536819, -0.0437226, -0.386442, 0.170585, -0.0620035, 0.0740661, -0.0527503, -0.118287, 0.0504126, -0.528681, 0.095083, -0.117162, -0.215673, -0.351421, 0.15874, 0.0370911, 0.0933597, -0.476065, -0.460807, -0.390087, -0.317581, 0.396229, -0.404546, 0.270923, -0.431877, -0.378455, 0.509495, -0.317344, -0.307643, -0.0646414, 0.279289, 0.0249874, -0.0778815, -0.422295, -0.145547, 0.0404419, 0.186216, 0.0657505},
{-0.311789, -0.117125, 0.244539, 0.177468, 0.0655728, -0.332003, 0.427735, -0.172618, 0.00420328, -0.21413, -0.323284, -0.304321, 0.156527, 0.0200453, -0.244155, 0.0784582, -0.0900517, 0.00667944, -0.0755968, -0.191866, -0.116319, -0.426646, -0.0551071, -0.016656, -0.228832, -0.446165, 0.181233, 0.0999149, 0.168929, -0.304426, -0.532744, -0.437785, -0.23596, 0.0311519, -0.308692, 0.235109, -0.742679, -0.227503, 0.35631, -0.351006, -0.155511, -0.140226, 0.413456, 0.0133428, -0.00414018, -0.298363, -0.320351, 0.106279, -0.18015, 0.130285},
{-0.225964, 0.0568034, 0.114276, 0.197677, -0.160246, -0.410261, 0.443131, -0.0483702, -0.0789531, -0.149243, -0.243463, -0.221942, 0.103724, 0.0115557, -0.120063, 0.103146, -0.148388, 0.0579278, -0.0342499, -0.38277, -0.0820699, -0.215971, 0.0188614, 0.217851, -0.271843, -0.337535, 0.272235, 0.0862314, 0.0542738, -0.0992466, -0.596232, -0.231449, -0.00307359, -0.0240009, -0.318858, 0.157406, -1.01457, -0.0205478, 0.202853, -0.388657, -0.0976227, -0.268313, 0.520034, -0.000701238, -0.174651, -0.190456, -0.365204, 0.0814733, -0.38315, 0.11914},
{-0.036048, 0.0121823, 0.0862059, 0.475319, -0.170262, -0.299684, 0.703278, 0.0724208, -0.10364, -0.230583, -0.160572, -0.370614, 0.0999123, 0.0277657, 0.0397441, 0.16186, -0.507362, 0.0376171, -0.181177, -0.339509, 0.022806, -0.266761, 0.158461, 0.0732858, 0.000203245, -0.255843, 0.272162, 0.00591899, 0.204527, 0.0900076, -0.734989, -0.0750577, 0.222709, -0.0353867, -0.48533, 0.129705, -0.926009, 0.141765, 0.214421, -0.308192, -0.182976, -0.18955, 0.6914, 0.524784, -0.219757, -0.509924, -0.35062, 0.194703, -0.468948, 0.0833008},
{-0.155558, 0.00129721, 0.112902, 0.414122, -0.112129, -0.174348, 0.634874, 0.0393012, 0.103219, -0.313437, -0.0700385, -0.203071, 0.0853813, 0.159121, 0.0400223, 0.252547, -0.583896, -0.0712837, 0.0553229, -0.361019, 0.0571634, -0.416512, 0.35911, -0.00297788, -0.0918988, -0.374768, 0.362522, -0.0614043, 0.136003, -0.0549978, -0.733229, -0.316713, 0.287518, -0.0223416, -0.250688, 0.0780848, -0.767296, 0.186623, 0.280301, -0.33918, -0.144518, -0.0374524, 0.451264, 0.550539, -0.138105, -0.365925, -0.229023, 0.0902868, -0.38349, -0.024467},
{-0.465982, -0.083216, 0.201291, 0.482407, 0.00537052, 0.0578311, 0.490715, -0.257119, 0.0932432, -0.316861, -0.0980198, -0.0842348, 0.335328, -0.179047, 0.0820533, 0.235894, -0.426461, 0.0326463, 0.12239, -0.493974, -0.121823, -0.532036, 0.431561, -0.0279804, -0.252639, -0.322453, 0.312529, -0.225494, -0.00851155, -0.396101, -0.467055, -0.323134, 0.261977, -0.0506012, -0.0929427, 0.0438362, -0.478932, 0.143852, 0.299374, -0.289559, -0.247132, -0.0978476, 0.2759, 0.505405, -0.04003, -0.331194, -0.261918, 0.127708, -0.276233, -0.061696},
{-0.366682, -0.106375, 0.148828, 0.463655, -0.0232767, 0.00258159, 0.497756, -0.111347, -0.0101739, -0.328389, -0.121328, -0.0206765, 0.29039, -0.137047, 0.193597, 0.179053, -0.419831, 0.0986892, 0.0793543, -0.373327, -0.196452, -0.335988, 0.381965, -0.0362698, -0.245439, -0.15471, 0.287455, -0.255985, 0.219839, -0.226094, -0.432802, -0.188647, 0.287385, -0.242715, 0.0509324, 0.0867794, -0.324612, 0.371574, 0.317543, -0.287861, -0.523821, 0.0640789, 0.35158, 0.542317, -0.24551, -0.287767, -0.16755, 0.42578, -0.199186, -0.135136},
{-0.381378, -0.0833915, 0.0740472, 0.441285, 0.032798, -0.0105094, 0.452962, -0.301259, 0.142091, -0.357352, -0.00559036, -0.046306, 0.233301, -0.0469996, -0.098169, 0.323912, -0.255177, 0.172146, 0.114933, -0.155034, -0.0275063, -0.441015, 0.395581, -0.104056, -0.175348, 0.00413241, 0.205732, -0.360916, -0.199154, -0.292745, -0.457658, -0.250377, 0.270117, -0.0973689, -0.0512513, 0.157666, -0.311234, 0.213978, 0.257671, -0.313641, -0.272598, -0.113871, 0.250807, 0.380685, -0.239458, 0.133, -0.0336236, 0.385141, -0.106218, -0.0416782},
{-0.103394, -0.202692, 0.231146, 0.272811, 0.0326162, -0.0724843, 0.0701882, -0.296806, -0.0150318, -0.303193, 0.0732088, -0.0932298, -0.0201384, -0.131059, -0.250693, 0.166386, 0.00541158, 0.00938151, 0.385018, 0.127078, 0.160464, -0.367481, 0.240734, -0.218002, -0.127983, 0.0729148, 0.0306666, -0.420126, -0.22831, -0.203811, -0.252465, -0.222478, 0.0408755, -0.0850438, -0.0611664, -0.16109, -0.186507, -0.00132812, 0.0936608, -0.258569, 0.057719, -0.123081, -0.0454252, 0.105325, -0.0927445, 0.160679, 0.0815235, 0.0485799, -0.0848049, 0.0136692},
{-0.027826, -0.144181, 0.0506041, 0.16134, 0.0460226, 0.0156941, 0.0106725, -0.311423, -0.0156111, -0.225127, 0.0594507, -0.0243005, -0.125775, 0.0233464, -0.257993, 0.19767, -0.0704933, -0.0507862, 0.241479, 0.164001, 0.0882458, -0.264027, 0.219895, -0.271981, 0.0718537, 0.0268823, -0.05605, -0.132382, -0.181446, -0.190673, -0.192145, -0.205352, -0.0171952, -0.00827129, -0.061616, -0.146398, -0.0416367, -0.0951035, 0.0476772, -0.043247, 0.214072, -0.29667, -0.131683, -0.0911321, 0.0725489, 0.166121, 0.107463, -0.0106401, 0.0404545, 0.0574041},
{0.0172921, 0.037442, -0.0684432, 0.00115968, -0.0115736, -0.0536236, -0.0834461, -0.0318667, 0.0677203, -0.0509013, 0.0164443, -0.0837518, -0.0407503, 0.0262624, -0.01566, 0.0273594, -0.0539323, 0.0101086, 0.0439648, 0.008936, -0.0698177, 0.0215659, 0.072684, -0.0225787, 0.00530464, 0.029947, -0.00584886, 0.0776527, 0.0325003, -0.0455698, 0.0466977, -0.0328705, -0.043222, 0.0425408, -0.00287368, -0.0167899, -0.0652629, -0.0119404, -0.0589072, 0.0703387, -0.0506316, 0.0294011, 0.0356883, -0.00195371, 0.0480909, 0.0446165, 0.0311518, 0.051257, 0.0479599, 0.00396647},
{-0.0213158, 0.0616257, -0.082494, 0.0707797, 0.0502842, -0.0447879, 0.0578383, -0.0185675, -0.0457694, -0.0648329, 0.00838012, -0.0121827, 0.0611941, 0.0775193, 0.0556064, 0.00670554, -0.0307367, -0.0731133, 0.066017, 0.0646994, -0.0212819, 0.0509879, -0.0251923, 0.0349247, -0.0505902, -0.0732184, -0.00817883, -0.0737173, -0.0163395, 0.0306138, 0.0235544, -0.0170471, -0.0783794, 0.0145499, 0.075401, 0.0661013, -0.00379018, 0.0365576, 0.0332139, -0.0206622, 0.0419198, -0.0816349, 0.0413941, -0.0432714, -0.03096, -0.0268454, -0.049015, 0.0152436, 0.0719217, 0.0313702},
{0.000797592, 0.0333281, 0.0720524, -0.0642333, -0.084618, -0.0187233, -0.0108424, -0.0687666, 0.0266102, 0.0702065, 0.00585798, 0.0196362, 0.0842477, 0.0443406, 0.0246646, 0.0327257, 0.0466643, -0.0291837, 0.0726422, 0.0706775, -0.0658456, -0.0796571, 0.0558253, 0.0458854, 0.0408582, -0.0707343, 0.0510607, -0.0530702, -0.027762, -0.019869, 0.0751369, -0.0465271, 0.0268252, 0.0493524, 0.0536405, 0.0204405, -0.0360699, 0.00120303, 0.0606926, -0.0569416, 0.0755195, -0.0663071, -0.0580171, 0.0180258, 0.0107948, 0.0278605, 0.0476992, -0.00932257, 0.00202786, -0.00826809},
{-0.0530282, -0.0208641, -0.0235914, 0.00967789, -0.0530299, 0.0639372, -0.0649923, 0.009733, 0.0298959, -0.05568, 0.0748567, 0.0548721, 0.0508796, -0.0148828, -0.0758912, 0.000379227, 0.00843865, 0.0467876, 0.0403592, 0.0789957, -0.0180822, 0.0301488, -0.0126088, -0.0330355, 0.0402503, -0.00908269, -0.0328406, 0.0816296, 0.058943, 0.0157833, 0.0078546, -0.0775594, -0.0475696, -0.0148095, 0.0335873, -0.0297732, -0.0541618, -0.0241454, -0.0739438, 0.0658528, -0.0102655, -0.0611785, 0.0285274, 0.0455969, -0.00425253, -0.0505891, -0.0672203, 0.0754866, 0.0182191, 0.00898433},
{-0.0285698, -0.0478888, -0.027554, -0.0594661, 0.189421, -0.134124, 0.154672, -0.0321425, -0.0308303, 0.100439, 0.0273964, 0.226388, -0.140068, 0.0379946, -0.135544, 0.108195, 0.0556098, 0.208662, -0.147246, -0.0656334, 0.265951, 0.0272142, 0.122861, -0.00180054, 0.0191594, 0.162203, -0.121491, 0.155257, 0.0970291, 0.184279, 0.151884, -0.00476674, 0.184198, 0.180542, -0.0918702, 0.167497, 0.0271289, -0.248347, -0.0850266, -0.220917, -0.125581, -0.0472226, 0.148183, -0.190182, 0.0856823, 0.064392, 0.15633, 0.0861701, 0.136018, 0.135627},
{-0.165123, 0.0523796, -0.0524673, 0.174955, 0.14724, 0.00659553, 0.239625, -0.137794, -0.010609, -0.253037, 0.0108931, 0.0215384, -0.0881206, 0.0921643, 0.219364, 0.100381, -0.203036, 0.199132, -0.0548531, 0.044912, -0.169408, -0.100629, 0.155651, 0.082722, -0.130696, 0.19864, -0.0970455, -0.0179297, -0.181111, -0.149743, -0.137977, -0.1093, 0.176366, 0.0294155, -0.0116253, 0.0027238, -0.174231, 0.0355218, 0.141542, -0.147951, -0.198772, 0.00479291, 0.118941, 0.132104, -0.229091, -0.0958379, 0.211124, 0.24868, 0.0975031, -0.013116},
{-0.00421363, 0.0857551, 0.0369781, 0.0634549, 0.0602766, -0.0992561, 0.0700849, -0.117134, 0.0862822, -0.148343, -0.0830764, -0.103245, 0.0708294, 0.0571289, 0.26645, 0.137251, -0.385621, 0.07421, -0.10052, -0.059432, -0.0967232, -0.0471812, 0.0591953, 0.27045, 0.0104817, -0.0941304, 0.0670486, 0.131076, -0.190408, -0.109873, 0.0232775, -0.087921, -0.117895, -0.256305, -0.215441, 0.137878, -0.149981, 0.112622, 0.0412577, -0.133549, -0.0266837, 0.0306754, 0.116791, 0.0791814, -0.259596, -0.143791, -0.145463, 0.210954, -0.0583299, -0.00682407},
{-0.182543, 0.114026, 0.166074, 0.252266, -0.177113, 0.0795188, 0.302208, -0.178737, 0.0760578, -0.126553, -0.208072, 0.033945, 0.237883, -0.0134299, -0.1855, -0.0786561, -0.154318, -0.078684, 0.072769, -0.285514, 0.11302, -0.121858, 0.32384, 0.115239, -0.216818, -0.227619, 0.159517, -0.0776698, -0.0901388, -0.0903186, -0.297193, -0.200207, -0.156858, -0.204485, -0.0854927, 0.141869, -0.261981, -0.0849868, 0.196556, 0.186859, -0.0432781, -0.00600309, 0.11141, 0.0190104, 0.114927, 0.0322476, -0.00276151, -0.142875, 0.167076, 0.154211},
{-0.306246, -0.0193775, 0.284499, 0.367134, -0.168023, 0.0873578, 0.198388, -0.266491, 0.182672, -0.261972, -0.28196, -0.15257, 0.219901, -0.0839772, -0.212287, 0.0357787, -0.223682, -0.0575053, 0.149041, -0.33672, 0.0178964, -0.362596, 0.47855, 0.0667307, -0.343157, -0.274946, 0.236906, -0.361215, -0.176387, -0.189808, -0.25853, -0.304592, -0.147262, -0.0991487, -0.122093, 0.0498, -0.392997, -0.110496, 0.223018, -0.0158663, -0.247356, 0.0828237, 0.119788, 0.0222546, -0.0209135, 0.0891464, -0.142487, -0.0724679, 0.0329133, 0.195577},
{-0.465253, -0.0261783, -0.0416351, 0.530149, -0.250652, 0.120631, 0.210709, -0.162035, 0.241345, -0.248655, -0.341938, 0.0457325, 0.19544, -0.0965693, -0.270393, 0.0352821, -0.297649, -0.24283, -0.132737, -0.244586, -0.10494, -0.361846, 0.623766, 0.0815063, -0.251003, -0.453935, 0.269994, -0.260633, -0.126309, -0.355897, -0.524332, -0.160959, -0.0945922, -0.136509, -0.337438, -0.0513372, -0.446296, -0.0662012, 0.26043, 0.00979514, -0.141195, 0.0688839, 0.120185, 0.106077, -0.0412043, -0.00787885, -0.215924, -0.0393673, 0.0849533, 0.192188},
{-0.467912, -0.00705969, -0.288039, 0.594107, -0.262165, 0.051844, 0.325076, -0.19359, 0.318631, -0.427653, -0.26995, 0.12487, -0.058638, -0.18995, -0.261534, -0.0890825, -0.343764, -0.0464621, -0.145981, -0.297914, -0.25739, -0.46498, 0.674359, 0.0697942, -0.222302, -0.175784, 0.439067, -0.320062, -0.378825, -0.401136, -0.669144, -0.207937, -0.132957, -0.0753825, -0.193487, -0.105293, -0.540484, -0.222651, 0.382904, 0.124789, -0.235461, -0.0486377, 0.313881, -0.179063, -0.0694871, -0.0804923, -0.0471357, 0.0750957, 0.182923, 0.295146},
{-0.358395, -0.121429, -0.0590945, 0.752876, 0.0174577, 0.0477239, 0.162223, -0.194079, 0.378061, -0.527595, -0.432566, -0.105654, 0.146615, -0.226623, -0.293836, 0.0418096, -0.0385858, -0.145318, -0.184062, -0.333291, -0.0830364, -0.473874, 0.713561, -0.0345964, -0.279962, -0.196597, 0.521337, -0.238235, -0.342845, -0.564063, -0.444847, -0.255772, -0.250259, 0.0573814, -0.169743, 0.0237838, -0.745335, -0.159334, 0.489756, -0.025765, -0.399528, -0.130727, 0.556295, -0.258981, -0.112839, 0.011877, -0.3337, 0.0123082, -0.0412372, 0.422727},
{-0.465335, -0.213314, -0.221475, 0.582059, -0.000742563, 0.132434, 0.169392, -0.00131081, 0.172998, -0.626699, -0.374395, 0.0806342, 0.222356, -0.324354, -0.334227, -0.128337, -0.111809, -0.464291, -0.127158, -0.306334, -0.319056, -0.464581, 0.625291, 0.0293147, -0.185271, -0.300985, 0.468851, -0.200161, -0.542089, -0.423297, -0.572205, -0.0682219, -0.233076, 0.077823, -0.119894, -0.0776782, -0.594289, -0.160434, 0.578111, 0.0160149, -0.182571, -0.0353995, 0.346245, -0.236511, -0.206765, -0.167573, -0.17111, -0.0480044, 0.0810061, 0.409024},
{-0.480629, -0.0887119, -0.208735, 0.624728, -0.330365, 0.2018, 0.0667477, 0.147881, 0.200893, -0.634096, -0.303859, 0.173467, 0.0857985, -0.189122, -0.237383, -0.0926293, -0.247701, -0.426936, -0.0464354, -0.104585, -0.445831, -0.514644, 0.406258, 0.0258893, -0.350943, -0.281578, 0.266701, -0.410695, -0.680113, -0.293462, -0.596652, 0.00155706, -0.530775, 0.148833, -0.20606, -0.0251412, -0.768496, -0.241504, 0.628888, 0.195669, -0.0275967, -0.157581, 0.479023, -0.139507, -0.166234, -0.235833, -0.0318385, -0.243328, 0.162269, 0.269986},
{-0.444317, 0.0970012, -0.201458, 0.643364, -0.295555, -0.0545882, 0.0503326, -0.0125928, 0.128133, -0.377604, -0.267857, 0.258626, -0.0483184, 0.000152546, -0.196312, -0.0581811, -0.386265, -0.218185, -0.279149, -0.0192755, -0.404212, -0.679246, 0.630597, 0.104366, -0.253273, -0.29508, 0.130225, -0.113232, -0.377715, -0.0753273, -0.656919, 0.0367419, -0.48063, 0.239869, -0.258765, -0.0343549, -1.01005, -0.282623, 0.595794, 0.0926836, -0.251748, -0.374172, 0.689691, -0.279725, -0.0193899, -0.291895, 0.0550514, -0.157054, 0.325318, 0.433562},
{-0.368886, 0.0264525, 0.0277324, 0.899206, -0.271175, -0.0149061, 0.0587358, -0.122049, -0.0471406, -0.527263, -0.262199, 0.267758, -0.155604, -0.199111, -0.266731, 0.0853673, -0.179169, -0.120528, 0.0566981, -0.138445, -0.444713, -0.654542, 0.589143, -0.00977164, -0.157702, -0.235701, 0.121423, -0.293033, -0.407835, -0.285902, -0.93372, -0.191266, -0.344922, 0.409578, -0.162088, 0.155004, -1.11498, -0.222844, 0.617665, -0.062458, -0.222385, -0.339374, 0.497613, -0.269017, -0.229108, -0.493428, -0.156665, -0.0486223, 0.20978, 0.386194},
{-0.260259, -0.00421191, -0.0175849, 0.783523, -0.401345, -0.0411032, 0.248834, 0.0422673, -0.029986, -0.376907, -0.13656, 0.0296185, 0.126225, -0.306489, -0.348039, -0.0958581, -0.26959, -0.240621, -0.0852865, 0.0673945, -0.546222, -0.31306, 0.280708, 0.016014, -0.169199, -0.177766, 0.0778064, -0.259298, -0.365746, -0.158048, -0.807388, -0.072643, -0.549839, 0.284506, -0.265593, -0.0831193, -0.887894, -0.353574, 0.683483, 0.0476847, -0.177347, -0.0858073, 0.394177, -0.15178, -0.183505, -0.588054, -0.0662921, -0.0587898, 0.165429, 0.167296},
{-0.0570682, 0.0698635, 0.149427, 0.635764, -0.232805, -0.12273, 0.344707, 0.0979777, -0.0814346, -0.352116, -0.278408, -0.195992, -0.0484801, -0.194343, -0.466558, 0.00915532, -0.187212, -0.150607, -0.160094, -0.106057, -0.360406, -0.292033, 0.165326, 0.136944, -0.137918, -0.189231, 0.0929388, 0.0344254, -0.136002, 0.0111101, -0.700129, -0.261479, -0.509529, 0.124136, -0.243788, -0.0539222, -0.778905, -0.364115, 0.727411, 0.0369892, -0.230408, -0.195529, 0.228134, -0.107438, -0.0475276, -0.631277, -0.082514, -0.0767297, 0.144397, 0.00537788},
{-0.0730342, 0.0593852, 0.160995, 0.332325, -0.196734, -0.0573342, 0.169724, -0.0825403, -0.195812, -0.388305, -0.0405566, -0.2228, 0.00705002, -0.259928, -0.491278, 0.120743, -0.144196, -0.0281069, 0.054497, -0.209772, -0.336385, -0.388682, 0.0756641, 0.0391526, -0.0649634, -0.189571, -0.0657919, -0.117513, -0.363629, 0.0150278, -0.748228, -0.272855, -0.551514, 0.238594, -0.150247, -0.0605491, -0.715719, -0.40198, 0.424606, -0.0884031, -0.237673, -0.352974, 0.101345, -0.192495, -0.0175342, -0.471919, 0.115624, -0.0407804, 0.0562182, 0.173745},
{0.090555, 0.230088, 0.010078, 0.258406, -0.350367, -0.056666, 0.368293, 0.00103139, -0.176737, -0.379538, -0.0144651, -0.341861, 0.0464756, -0.145006, -0.394034, -0.150024, -0.148549, -0.012177, -0.0386908, -0.161986, -0.163476, -0.277861, -0.0929723, 0.0192956, -0.0572366, -0.193297, -0.149365, -0.0728968, -0.206087, -0.0364387, -0.523145, -0.360542, -0.305688, 0.0266768, -0.183927, -0.0431331, -0.598866, -0.319364, 0.296158, 0.0635573, -0.219365, -0.359115, 0.0163314, 0.0118147, -0.11919, -0.373249, 0.0970607, 0.0937397, -0.141684, 0.160077},
{-0.0486923, 0.325579, -0.0358531, 0.185877, -0.314148, -0.0379514, 0.435738, 0.0957775, -0.174293, -0.306928, -0.0682647, -0.541632, 0.195126, -0.0585061, -0.303411, -0.31434, -0.25608, 0.161745, -0.241497, -0.178718, -0.0998471, -0.349533, -0.293907, 0.100675, -0.0697148, -0.302965, -0.0275852, 0.132303, -0.189009, 0.076225, -0.684728, -0.164458, 0.0578414, -0.134752, -0.303061, 0.0444647, -0.616769, -0.17499, 0.143004, 0.0687749, -0.229757, -0.484839, 0.245539, -0.0532822, -0.137681, -0.435069, 0.0865623, -0.0573548, -0.403351, 0.0585464},
{0.0296433, 0.0849786, -0.155798, 0.115031, -0.170374, 0.0680043, 0.370145, 0.0297215, 0.0166227, -0.127665, -0.0746291, -0.556035, 0.319769, -0.0774038, -0.131539, -0.134374, -0.300014, 0.00515709, -0.0581112, -0.200187, -0.054376, -0.288233, -0.233623, 0.0972695, 0.0410687, -0.225773, -0.0341939, 0.0523322, -0.408633, 0.020971, -0.455716, -0.0955942, -0.196299, -0.135632, -0.543254, 0.09101, -0.424079, -0.0414931, 0.143741, -0.0884952, -0.359268, -0.122971, 0.528557, 0.0282101, -0.145542, -0.3144, -0.143844, 0.0986501, -0.568939, 0.159222},
{-0.0316624, 0.0805657, -0.165237, 0.419967, -0.205976, -0.207915, 0.598415, 0.0634371, -0.0250023, -0.282432, -0.0803445, -0.369597, 0.0949972, -0.2556, -0.233171, -0.152034, -0.617769, 0.0173646, -0.228376, -0.204902, 0.0852375, -0.223477, -0.0454768, 0.0694133, 0.0229406, -0.275995, -0.0352568, 0.114939, -0.419538, -0.0532988, -0.388799, 0.0369102, -0.183948, -0.18832, -0.508725, -0.0621932, -0.341314, 0.0378159, 0.308374, -0.0413495, -0.252961, 0.102546, 0.570378, 0.241646, -0.163859, -0.438277, 0.0448128, 0.114535, -0.383971, -0.0101049},
{0.0830103, -0.0180301, -0.0809347, 0.196599, -0.146461, -0.180579, 0.491548, 0.0312548, 0.144035, -0.0772422, -0.236375, -0.410206, 0.197133, -0.21057, 0.0343781, -0.0167278, -0.377474, -0.121003, -0.095406, -0.175362, 0.122835, -0.228071, -0.0461005, 0.0844904, 0.170218, -0.41923, 0.283147, -0.0389633, -0.130117, 0.00991245, -0.21909, 0.125961, 0.00351957, -0.371926, -0.458601, -0.0247689, -0.20613, 0.208125, 0.208607, -0.0954143, -0.170383, 0.126717, 0.4794, 0.207696, -0.286154, -0.391826, -0.0163259, 0.239985, -0.423142, -0.239084},
{0.0363726, -0.024807, -0.117074, 0.118441, -0.193353, 0.0100985, 0.466897, 0.0437834, 0.0555879, 0.114323, -0.255147, -0.339143, 0.20405, -0.154637, 0.447058, -0.195973, -0.193476, -0.196914, 0.0501399, -0.123016, 0.166934, -0.158831, 0.0689418, 0.0692223, 0.0422216, -0.318165, 0.269365, -0.137244, 0.183367, 0.0899996, -0.35415, 0.0977325, 0.0354998, -0.480783, -0.39422, 0.00863385, 0.0232513, 0.434357, 0.0239676, -0.0567425, -0.275405, 0.0684524, 0.248346, 0.236761, -0.277768, -0.16053, -0.0737993, 0.0634385, -0.3277, -0.388122},
{-0.121987, -0.105902, 0.0784302, 0.375333, -0.187269, -0.135771, 0.426199, -0.0509701, 0.1231, 0.112382, -0.172163, -0.143996, 0.199844, -0.106261, 0.516479, -0.119113, -0.122926, -0.17662, 0.0294083, -0.146967, 0.186235, -0.0458925, 0.437189, -0.079809, -0.255455, -0.251633, 0.351402, -0.318954, 0.162265, -0.159985, -0.463143, -0.168232, 0.151497, -0.607232, -0.244619, -0.00059699, -0.171438, 0.717733, 0.243124, -0.0890265, -0.2708, -0.05272, 0.166318, 0.193608, -0.310819, -0.0818003, 0.0291219, 0.193993, -0.149868, -0.530322},
{-0.135058, -0.128902, -0.0261751, 0.409592, -0.148913, -0.0194889, 0.133199, 0.00496432, 0.0521144, 0.017502, -0.161943, -0.171693, 0.162569, -0.0643051, 0.127598, 0.0150201, -0.0925482, -0.0600054, -0.044959, 0.146864, 0.122565, -0.066141, 0.354797, -0.180189, -0.0197805, -0.076224, 0.158763, -0.147812, -0.235011, -0.137516, -0.506174, -0.368535, 0.0389045, -0.463068, -0.358545, -0.104128, -0.193885, 0.45627, 0.321532, -0.0544514, 0.062266, -0.100611, 0.0654979, 0.115894, -0.0798541, -0.00427379, 0.21352, 0.267991, -0.136788, -0.360381},
{0.144973, -0.107119, -0.102587, 0.290155, 0.10978, 0.0246975, -0.0842093, 0.0845234, -0.10681, 0.148849, 0.033971, -0.0434806, -0.120192, -0.097114, -0.0626926, -0.0118796, 0.025, 0.0334168, -0.0385724, 0.316212, 0.268757, 0.110152, -0.00194917, -0.135262, 0.0518687, 0.00689403, 0.013472, 0.0356188, -0.208427, -0.0845922, -0.323834, 0.0444777, -0.0524293, -0.0808982, 0.0689466, -0.294094, 0.0646052, 0.276402, 0.227342, -0.0607646, 0.15495, -0.079453, 0.0238974, -0.152248, -0.0065587, 0.118423, 0.321744, -0.139546, -0.0129147, -0.00466712},
{0.0349691, -0.147513, 0.0261034, 0.147612, 0.0129447, 0.088353, 0.034099, -0.0363166, 0.164182, 0.122776, 0.0983582, -0.110409, -0.00685799, -0.0364669, 0.0817658, 0.0558184, 0.0585056, -0.114385, 0.156755, 0.027888, -0.0345484, -0.187324, 0.165801, 0.0675293, 0.117085, -0.0803127, 0.150723, -0.0258789, -0.11921, -0.150006, -0.133565, -0.0456273, -0.1743, -0.100003, -0.148716, -0.176134, -0.0859147, 0.137195, 0.129582, -0.224719, -0.0999425, 0.078723, 0.11195, 0.156543, -0.02867, 0.0286726, 0.0864069, -0.0993062, 0.0292038, -0.0349826},
{-0.00352304, -0.046835, -0.00996627, 0.0645376, 0.0577124, -0.0317029, -0.0571775, -0.0495378, -0.0817047, 0.0122892, -0.0583559, -0.05384, 0.0236335, -0.0700943, -0.0120077, 0.0165098, -0.0675353, -0.0148814, -0.0159661, 0.0579953, -0.016138, 0.00288361, -0.0383131, -0.0735363, 0.0804526, -0.0389772, 0.0696884, -0.0501917, 0.0223931, -0.00604104, 0.0312167, -0.0120922, -0.0835863, -0.026282, 0.0835634, 0.0815442, 0.0556492, 0.0148045, 0.0211945, -0.0711917, 0.0766596, 0.00674201, -0.074, -0.00125686, -0.0400337, 0.0772345, 0.0613625, 0.0729902, 0.0380086, 0.0740999},
{0.0257972, 0.0670296, -0.0100233, -0.0146893, -0.0400475, 0.00654043, -0.0784357, 0.028361, -0.0310229, 0.0400141, 0.0127188, 0.0562724, -0.0550994, 0.0777043, -0.0148784, -0.035045, -0.048012, -0.0780225, -0.0507325, 0.0443963, 0.0546404, 0.059671, 0.056195, 0.0696627, 0.0649461, -0.0551545, 0.0592047, -0.0730407, -0.0150476, 0.0357781, -0.0302129, -0.00463229, -0.00276236, 0.0369338, -0.0189373, 0.008012, -0.063584, 0.00106206, 0.0128178, 0.00964686, -0.0663439, -0.0368158, 0.0399729, -0.0421285, 0.0274901, 0.0540992, -0.0451129, 0.0361254, -0.055559, 0.0123072},
{-0.0490313, -0.0369287, 0.000843725, -0.027516, -0.0612075, 0.0414291, 0.0856572, 0.0841143, -0.0338609, -0.00651754, 0.0230925, 0.0109691, 0.0768137, 0.0248658, 0.0334736, -0.0628096, -0.057284, 0.0769629, -0.0559284, 0.070652, 0.0601112, 0.0217176, -0.0783386, -0.064121, 0.0165628, 0.0292059, 0.0457689, -0.0325075, 0.079088, -0.0225063, -0.0253785, -0.0184472, -0.0738546, -0.0519461, -0.076669, 0.00159294, -0.023568, -0.0336142, 0.0305888, 0.00707322, 0.0228666, -0.0199494, 0.00870248, -0.0223402, 0.0409596, -0.0142672, 0.0704524, -0.0175387, 0.0437666, 0.00151414},
{-0.121731, 0.106636, 0.085201, -0.0766467, 0.165433, -0.104401, 0.083104, -0.0870474, -0.191851, 0.146719, 0.00608687, 0.180284, -0.132729, 0.0565522, -0.191101, 0.0289487, 0.0827421, 0.183183, -0.233117, -0.0905304, 0.231609, -0.137563, 0.048891, 0.0871647, -0.176248, 0.182854, -0.119843, 0.240931, -0.0446077, 0.175873, 0.118351, -0.034491, 0.173358, 0.250681, -0.153154, 0.134027, -0.00436956, -0.229244, -0.2455, -0.18396, -0.10013, -0.0172184, 0.0837134, -0.139781, -0.0231193, 0.200536, 0.0972706, 0.105757, 0.18502, 0.0797375},
{-0.139261, 0.150448, -0.02689, 0.0485883, -0.131122, -0.151681, 0.282917, 0.0500656, -0.192268, -0.1117, 0.00842829, 0.200357, -0.28799, 0.0911823, -0.191413, -0.17432, -0.185953, 0.294265, -0.294024, -0.0247863, 0.253815, -0.243759, -0.209457, 0.119091, 0.0124986, 0.136596, 0.00402257, 0.170813, -0.0225836, 0.229205, 0.00757512, -0.247627, 0.152024, 0.0208414, -0.179774, -0.16626, -0.0592607, -0.23616, -0.26021, 0.126721, -0.0782627, -0.0961437, 0.0496114, 0.0109037, -0.168616, -0.0155124, 0.125921, -0.0224908, 0.241688, -0.0267301},
{-0.0912711, 0.0578258, 0.125336, -0.0962617, 0.0506442, -0.0729608, 0.282176, 0.0822531, -0.0266145, 0.00838852, -0.143391, 0.0457483, 0.123797, 0.0950213, 0.0104487, -0.022435, -0.172692, -0.15697, -0.145642, -0.00122009, -0.0425421, 0.156905, -0.159533, -0.0832061, -0.0211826, -0.216162, 0.190001, 0.132798, -0.15124, 0.0663375, -0.131204, -0.136566, -0.0121195, -0.187844, -0.22509, -0.053162, 0.0101248, 0.0382528, 0.0678999, 0.14964, -0.190936, 0.0897642, 0.0335751, -0.00732231, -0.212447, -0.170359, -0.113925, 0.164371, 0.10898, -0.103969},
{-0.355073, -0.133513, 0.184057, 0.0401166, 0.062969, -0.280351, 0.304011, -0.144931, 0.0713711, -0.0304277, -0.195812, 0.0732884, 0.298369, 0.0648651, -0.0600628, 0.0463043, -0.0493298, -0.210641, -0.000785345, -0.0260013, 0.0733067, -0.117484, 0.275338, 0.0595438, -0.148245, -0.382514, 0.214372, -0.0801509, -0.335252, 0.00206627, 0.0858814, -0.320354, -0.171077, -0.168125, -0.329618, 0.133644, 0.0771376, -0.000779434, -0.0408625, 0.306237, -0.061628, 0.207304, 0.0415832, 0.0121513, 0.0110074, 0.112242, -0.097339, -0.164794, 0.205868, 0.129995},
{-0.296547, -0.169073, 0.157376, 0.405292, 0.024295, -0.181346, 0.0637616, -0.0750411, 0.119854, -0.221768, -0.324942, -0.00614117, 0.260417, 0.0419935, -0.149321, 0.0281406, 0.00334139, -0.0395178, 0.14003, 0.0689254, -0.216932, -0.341349, 0.418639, -0.106285, -0.0947914, -0.449923, 0.410058, -0.180624, -0.335022, 0.00553271, -0.146258, -0.130311, -0.117678, 0.0613803, -0.313707, 0.02003, 0.0782143, -0.0861342, 0.0459087, 0.41577, 0.0285987, 0.137667, -0.0341889, -0.21264, 0.195069, 0.306355, -0.167638, -0.0580175, 0.0880721, 0.298528},
{-0.148192, 0.0316908, 0.0562951, 0.30731, -0.109754, -0.0606487, 0.226512, -0.0836762, 0.156152, -0.0617113, -0.283545, 0.084495, 0.102619, -0.113266, -0.191182, -0.137711, -0.00589072, -0.28424, -0.00555503, 0.0903604, -0.319089, -0.260304, 0.283291, -0.0178243, -0.15761, -0.377673, 0.484925, -0.226533, -0.484301, -0.00482137, -0.286134, 0.00501802, -0.206493, 0.0192772, -0.172763, -0.0515888, -0.205226, -0.0962878, 0.293082, 0.554309, -0.0135478, 0.137486, -0.0458362, -0.206613, 0.0383864, 0.049734, -0.162716, 0.0617132, 0.0552525, 0.285733},
{-0.148251, -0.117093, 0.155389, 0.328836, -0.0802733, -0.0419664, 0.177305, -0.175255, 0.089384, -0.0511056, -0.420829, 0.12944, -0.111997, -0.00480542, -0.222239, 0.0136728, 0.109543, -0.391736, 0.103642, -0.0702607, -0.361738, -0.235284, 0.427328, -0.0364405, -0.166408, -0.383916, 0.287645, -0.0373721, -0.499313, -0.0850604, -0.291061, -0.0874103, -0.296575, -0.000496127, -0.140526, -0.00740418, -0.457018, -0.195838, 0.413226, 0.488077, -0.0864102, -0.0662097, 0.087543, -0.4302, 0.024359, 0.00668032, -0.0625019, 0.0073649, 0.232388, 0.41998},
{-0.125392, -0.107421, 0.011877, 0.565979, -0.045217, 0.0124765, 0.0685423, -0.152816, 0.0481289, -0.257012, -0.388571, 0.0489891, -0.127816, -0.185248, -0.202037, -0.0477128, 0.14784, -0.349521, 0.119884, -0.132602, -0.277892, -0.304292, 0.494295, 0.049974, -0.171956, -0.194511, 0.404657, -0.116073, -0.403116, -0.180348, -0.387877, 0.0824453, -0.469279, -0.00531724, 0.0495302, 0.0422561, -0.607245, -0.276538, 0.458066, 0.266557, 0.0865135, -0.171459, 0.124548, -0.367512, -0.0733724, -0.000539713, -0.0998093, -0.113406, 0.180911, 0.40097},
{-0.256165, -0.141351, -0.176669, 0.591963, -0.0754398, -0.103174, 0.0362497, -0.0469875, 0.191355, -0.265602, -0.43533, 0.139248, -0.0827396, -0.0243111, -0.196025, -0.100443, 0.166441, -0.416519, -0.0816072, -0.052994, -0.164262, -0.306394, 0.393956, 0.0588464, -0.0581522, -0.159623, 0.33255, -0.106467, -0.539314, -0.0353832, -0.370349, 0.077426, -0.389484, -0.0222659, -0.0207269, -0.0681804, -0.662018, -0.159659, 0.576076, 0.190927, 0.0357771, -0.160729, 0.0357412, -0.490021, -0.0130733, -0.166028, -0.0446849, -0.126115, 0.176173, 0.38873},
{-0.0983907, -0.128563, -0.294683, 0.479104, -0.0384203, -0.0345924, -0.135057, 0.203201, -0.0260506, -0.0835373, -0.144333, 0.00413789, -0.182183, 0.0627608, -0.306499, -0.149318, 0.0391682, -0.288881, -0.195269, 0.071427, -0.191229, -0.0601928, 0.276379, -0.0019902, 0.0990044, -0.0447666, 0.0433595, 0.142095, -0.377487, -0.00533742, -0.192963, 0.190158, -0.283014, 0.141395, -0.0435599, -0.194238, -0.72295, -0.098912, 0.388338, 0.156301, 0.109393, -0.213824, -0.00249468, -0.519925, -0.0667461, -0.184466, 0.233152, -0.108678, 0.164226, 0.280962},
{-0.227937, -0.0970146, -0.190834, 0.510171, -0.0432361, -0.0467532, -0.0918602, 0.11798, 0.0389581, -0.110369, -0.20548, 0.0849979, -0.175679, -0.0930678, -0.348402, -0.129124, 0.0260158, -0.284401, -0.202016, 0.0272385, -0.111664, -0.127332, 0.231477, 0.0614131, 0.11236, -0.27603, 0.0490379, -0.0306, -0.29555, -0.087509, -0.182296, 0.206254, -0.237579, 0.26513, 0.0589003, -0.212886, -0.593624, -0.062039, 0.487061, 0.132808, 0.0348108, -0.22527, -0.0488518, -0.403071, -0.120797, -0.146479, 0.15886, -0.0774064, 0.148919, 0.283432},
{-0.171486, -0.16067, 0.0151253, 0.489163, 0.0655108, 0.0446284, -0.0938924, 0.126836, -0.143371, -0.133725, -0.142733, 0.0720309, -0.351803, -0.0428337, -0.290384, 0.0677162, 0.0570877, -0.107106, -0.188289, 0.0833946, -0.160128, -0.139979, 0.16437, 0.136261, 0.135947, -0.00927842, -0.0234563, 0.0308611, -0.287065, -0.10331, -0.142178, 0.0528085, -0.0832535, 0.252296, 0.129122, 0.00458732, -0.604881, -0.0225831, 0.459107, 0.0210422, 0.0594099, -0.0313924, -0.118231, -0.193271, 0.0111422, -0.249478, -0.0532641, 0.0151086, 0.181961, 0.092125},
{-0.159551, 0.0548267, -0.114214, 0.600463, -0.0248958, -0.0261774, -0.0268965, 0.125157, -0.0175652, 0.0152203, -0.0909843, -0.0113928, -0.344862, 0.0298848, -0.258066, 0.0934672, 0.0293453, 0.0149729, -0.204067, 0.0570449, -0.173436, -0.0566878, 0.18502, 0.179429, -0.0614243, 0.0735714, -0.100396, 0.0390211, -0.123115, 0.040931, -0.303248, 0.0396522, -0.0960948, 0.262612, 0.190191, -0.221955, -0.72037, -0.0563659, 0.556998, 0.0402869, 0.0635473, -0.0515111, -0.104588, -0.207533, -0.0129586, -0.244677, -0.0243084, -0.0762472, 0.151496, 0.0128034},
{-0.139515, 0.0970067, -0.23501, 0.523874, 0.0480885, -0.0704031, 0.0520449, 0.0575504, -0.0939113, 0.00572865, -0.169674, 0.0639971, -0.323314, 0.0951596, -0.193758, 0.121562, -0.266442, 0.117664, -0.238959, 0.0586993, -0.144149, -0.198689, 0.208866, 0.193324, -0.00544884, 0.152125, -0.00949326, 0.0737112, -0.105075, 0.0583875, -0.285384, 0.0653759, -0.220225, 0.321737, 0.0578274, -0.220594, -0.639967, -0.224931, 0.401187, 0.00859681, -0.0537391, -0.26417, -0.0247029, -0.273218, -0.111898, -0.467799, 0.048263, -0.0597208, 0.0302223, -0.0115119},
{-0.133833, 0.149512, -0.274468, 0.32034, -0.159756, 0.0189138, -0.0312634, -0.00355751, -0.0105715, -0.14687, 0.00590672, -0.211656, -0.275519, -0.0498511, -0.0819841, 0.0872536, -0.14246, 0.032629, -0.0218144, 0.181472, -0.091086, -0.194418, 0.303459, 0.148756, 0.150742, -0.039668, -0.136087, 0.127908, 0.0325675, 0.148887, -0.237203, 0.0150982, -0.0894604, 0.313505, -0.0871615, -0.331767, -0.643031, -0.24976, 0.217094, -0.14324, -0.171379, -0.317785, -0.0674852, -0.0955417, -0.0982858, -0.321294, 0.0359541, -0.132359, 0.0169534, -0.0593677},
{-0.118042, 0.223907, -0.194545, 0.334559, -0.191572, 0.112449, -0.0399753, -0.00371303, -0.0321941, -0.0894405, -0.00241152, -0.3319, -0.0603538, -0.238445, -0.0289337, -0.0570429, -0.105739, -0.127532, -0.0489531, 0.163469, -0.114966, -0.220252, 0.226296, 0.205456, 0.131674, -0.0288171, -0.113939, 0.0522395, 0.005917, 0.0902397, -0.291856, -0.033811, -0.185981, 0.110467, 0.036681, -0.248632, -0.389104, -0.0113842, 0.193991, -0.086906, -0.0394045, -0.328361, -0.0390095, -0.0302517, -0.226363, -0.272564, 0.0759669, -0.141199, -0.177187, -0.0244648},
{-0.0364802, 0.263024, -0.396281, 0.245714, -0.243942, -0.118959, 0.110004, 0.042693, -0.132252, -0.192259, 0.00722074, -0.356048, -0.122615, -0.0210712, -0.213322, -0.104096, -0.0683146, -0.10264, -0.016573, 0.16551, -0.101505, -0.10737, 0.126905, 0.19216, 0.174886, -0.151126, -0.212318, 0.241574, -0.0904949, 0.0893888, -0.189814, -0.0116462, -0.0344506, 0.0653705, -0.266816, -0.146015, -0.453624, -0.13653, 0.046481, -0.0217005, -0.0288507, -0.280992, 0.0722263, -0.0418529, -0.165506, -0.170953, 0.0697999, -0.0997811, -0.0779477, 0.0365812},
{-0.287791, 0.0748394, -0.0828993, -0.0243844, -0.156505, 0.111762, 0.252321, -0.0707324, -0.0975766, 0.142598, -0.257448, -0.401054, 0.100192, -0.0675102, -0.047021, -0.028831, -0.148728, -0.169375, -0.0765673, 0.0825462, -0.087287, -0.012886, 0.010992, 0.228309, 0.0629438, -0.104923, -0.240263, 0.0890624, -0.106405, 0.095064, -0.0628245, -0.0840913, 0.0404383, -0.0824408, -0.163667, 0.0529416, -0.562824, -0.0953962, -0.230999, -0.0977039, -0.237269, 0.0496883, -0.0137179, 0.0059595, -0.185349, -0.19552, 0.101041, -0.0937782, -0.198659, 0.151931},
{-0.122804, 0.0959074, -0.152485, -0.0580474, -0.146953, 0.208918, 0.260686, -0.0411032, -0.108667, 0.136656, -0.191306, -0.503626, 0.158245, -0.205272, 0.0584529, -0.074164, -0.0118736, -0.138105, -0.00285583, 0.0251355, 0.0146779, 0.132125, 0.0906282, 0.244847, 0.0844264, -0.173846, -0.118095, 0.0208454, 0.00298777, 0.00267198, -0.0555666, -0.15841, -0.0494047, -0.243865, -0.0339128, 0.0612679, -0.286366, 0.0810905, -0.116261, -0.109352, -0.293324, 0.115316, -0.0924297, 0.0366094, -0.0928292, -0.0707514, -0.00940631, -0.0678706, -0.331073, -0.0611343},
{-0.0571278, 0.0726784, -0.178698, -0.168222, -0.197152, -0.00374023, 0.318395, 0.0409199, 0.0429326, 0.217395, -0.270106, -0.445697, 0.0875934, -0.0369307, 0.238121, -0.12449, -0.168636, -0.247624, -0.072769, 0.0461455, 0.0495731, 0.216473, -0.0574301, 0.0611535, 0.298171, -0.250695, 0.0529383, 0.0612771, 0.0634867, 0.06138, 0.103091, -0.0567899, -0.0208321, -0.397478, -0.24687, -0.0396699, 0.0732876, 0.144495, -0.159936, -0.143024, -0.151274, 0.10498, 0.0502333, 0.0298376, -0.200397, -0.0820788, -0.0305313, 0.225732, -0.368615, 0.0246441},
{0.0722223, 0.0394802, -0.162971, -0.188848, -0.200043, -0.0321053, 0.378237, 0.338403, 0.111137, 0.324013, -0.200518, -0.419833, 0.320971, 0.0332136, 0.335932, -0.362642, -0.225637, -0.205628, -0.0485377, 0.306294, 0.0931847, 0.283129, 0.00625446, 0.0960288, 0.2903, -0.155887, 0.00463965, 0.0402575, 0.189864, -0.0816157, -0.00922318, 0.0508764, 0.184534, -0.320132, -0.2643, -0.0247605, 0.190473, 0.270312, -0.303102, -0.0327774, -0.244518, 0.126631, 0.0790425, 0.185094, -0.0776542, -0.0971127, 0.0307355, 0.130664, -0.405625, 0.00489109},
{-0.0370837, 0.109379, -0.185628, 0.0528286, 0.0490164, -0.0812551, 0.371272, 0.352829, 0.19427, 0.477362, -0.121901, -0.323493, 0.333353, 0.0192375, 0.742225, -0.150296, -0.255799, -0.112323, 0.0751475, 0.326198, 0.1434, 0.424576, -0.0564926, 0.233014, 0.225617, -0.273004, 0.159359, 0.0044101, 0.431344, -0.251061, 0.121277, 0.243926, 0.0666403, -0.489367, -0.569752, 0.000431811, 0.122616, 0.579128, -0.0803871, -0.232518, -0.149251, 0.196541, 0.0486892, 0.2925, -0.0435672, -0.246405, -0.16254, 0.354304, -0.468481, -0.0920142},
{0.0920775, 0.0576507, -0.177017, -0.0154661, 0.0174272, -0.12047, 0.228969, 0.269924, 0.210725, 0.424408, -0.146643, -0.15414, -0.0349783, 0.120737, 0.309032, -0.157286, -0.172343, 0.0040978, -0.0995941, 0.325853, 0.279576, 0.359501, -0.200532, 0.137434, 0.306733, -0.456474, 0.389273, 0.389078, 0.237797, -0.133882, -0.0595702, 0.282634, -0.200383, -0.541757, -0.537352, -0.396338, 0.0627976, 0.627652, 0.220757, 0.0206589, 0.239892, 0.0447232, -0.0946732, 0.14816, 0.0307877, -0.16326, -0.110771, -0.0918461, -0.22483, -0.0962802},
{0.192879, 0.179034, -0.131901, 0.351633, -0.256468, -0.201591, -0.0181741, 0.022856, 0.126478, 0.451555, 0.0789911, -0.167838, -0.231112, 0.268904, 0.0895499, -0.264158, 0.0274329, -0.000263446, -0.0934732, 0.151306, 0.331454, 0.295656, 0.0415549, 0.167712, 0.27269, -0.212177, 0.439341, 0.293002, 0.0418691, 0.0887204, -0.352199, 0.166195, -0.182419, -0.40735, -0.441801, -0.451239, -0.220742, 0.431328, 0.477933, 0.254414, 0.295867, -0.123177, -0.0589809, -0.0642351, 0.133466, 0.0208649, 0.16335, -0.189301, -0.204712, 0.0307161},
{0.18939, 0.137399, 0.184766, 0.253861, -0.330101, 0.0895574, 0.0445342, -0.21084, -0.178938, 0.210249, 0.195371, -0.0722835, -0.191468, -0.0193727, 0.223218, -0.258435, 0.217116, -0.0480065, -0.0959234, -0.227598, 0.210121, 0.156563, 0.0789001, 0.179821, 0.0461906, -0.0790177, 0.191141, -0.122026, 0.147386, 0.00812943, -0.279705, -0.1036, 0.184651, -0.315271, -0.250815, -0.237841, -0.265817, 0.128898, 0.269733, 0.0163897, 0.140403, -0.225603, -0.00278827, -0.209728, 0.11483, 0.043757, 0.116118, -0.299417, -0.116823, -0.108978},
{-0.109814, -0.0873234, 0.213563, 0.21903, -0.188259, 0.16579, -0.0469727, -0.231418, 0.174742, -0.246678, -0.0633737, -0.0364599, 0.193036, -0.0736035, 0.116582, 0.155319, -0.0539974, -0.0973167, 0.0731916, -0.241036, -0.086255, -0.0652758, 0.220774, -0.188111, -0.0563093, -0.0639323, 0.14515, -0.298563, -0.141039, -0.229801, -0.190693, -0.250771, -0.028606, -0.200349, 0.111619, 0.113806, -0.141733, 0.276573, 0.21295, -0.0617062, -0.0371079, -0.0148899, 0.00280392, 0.137546, 0.0711277, -0.0411828, -0.0971775, -0.0903257, 0.0246865, -0.29122},
{-0.0774827, -0.0263161, 0.00523899, -0.0440257, -0.00535898, 0.0721499, -0.0194075, -0.0241543, -0.0548595, 0.0748717, 0.0181731, 0.0761922, 0.0578314, -0.0797551, 0.0314992, 0.0831844, 0.00460818, 0.0641522, 0.0366501, 0.0530221, -0.0684829, -0.0512838, -0.0238975, 0.0531055, 0.0319124, -0.0113543, -0.0735004, 0.0588071, 0.0564107, -0.0198063, 0.0820863, 0.00740922, -0.0761648, 0.0679689, -0.0425425, 0.052912, 0.071161, 0.0293512, 0.0460648, -0.0528761, 0.0824454, -0.0236229, 0.0561141, -0.0287172, -0.0759909, 0.0521427, 0.0207047, -0.0129242, -0.0761073, -0.0422058},
{-0.0275348, 0.0769952, -0.0430695, -0.0441674, 0.070809, -0.0160161, -0.0659778, -0.064229, 0.0643535, -0.0482771, -0.0576441, 0.019049, 0.0113654, 0.0101773, -0.0112989, -0.0156685, 0.00837444, 0.0389849, 0.0190122, 0.0044478, -0.0620691, -0.00546672, 0.0637581, 0.0449949, -0.0584372, 0.0473509, 0.0620153, 0.070609, 0.0219192, -0.00808948, 0.0795124, -0.0159695, 0.00289202, -0.011044, -0.0405785, 0.0558404, -0.0482612, 0.0361895, 0.0251255, -0.00453457, -0.0392386, 0.0404016, -0.0246998, 0.00436737, 0.0725838, -0.0405914, -0.049841, 0.0146473, 0.0352, -0.063606},
{-0.251262, -0.192973, 0.111259, 0.103369, 0.207743, -0.141179, 0.0931002, -0.22581, 0.173604, -0.0888441, -0.0331994, 0.0542752, -0.0481018, 0.109629, -0.0246754, 0.344699, 0.103112, 0.244055, -0.0398062, -0.304676, 0.127128, -0.136066, 0.309285, 0.10308, -0.158757, 0.00249628, 0.00440545, -0.00370276, 0.099993, 0.213782, -0.112833, -0.0168507, 0.191837, 0.159365, 0.00727856, 0.298281, -0.301734, -0.0981382, -0.142631, -0.276152, -0.198141, -0.0933926, 0.139589, 0.0956703, 0.0330791, -0.0556285, -0.176795, -0.0506738, 0.212482, 0.0971013},
{-0.0764498, -0.0256029, -0.0715778, -0.0151246, 0.141349, -0.0509156, -0.00557414, 0.159499, 0.0384359, -0.0411899, -0.012357, 0.268867, -0.0998445, 0.0473747, -0.15559, -0.0484281, 0.0597562, 0.0406618, -0.172493, 0.149018, -0.161369, -0.0827898, -0.0894942, 0.0635548, -0.0214947, -0.143456, -0.104041, 0.171466, 0.00838878, 0.00597916, 0.25087, -0.286338, 0.163832, -0.133275, -0.283639, -0.0358793, -0.00875585, 0.0291573, -0.191929, 0.06076, 0.00475904, -0.252299, -0.0751396, -0.0239467, 0.13112, -0.0209719, 0.00369866, -0.232701, 0.117707, 0.135039},
{-0.311212, -0.137675, 0.331503, 0.126092, 0.0315612, -0.0093022, 0.182449, -0.120719, 0.14915, -0.0336582, -0.190906, 0.1857, 0.285966, 0.0505405, -0.146134, 0.209962, 0.0892653, -0.0305036, 0.198881, -0.0457068, -0.126845, -0.0435258, 0.182695, -0.21123, -0.26101, -0.0811548, 0.069798, -0.0962341, -0.0529297, -0.125552, -0.0706035, -0.348262, 0.023689, -0.176248, -0.350528, 0.161548, 0.251225, 0.0940885, 0.0117544, 0.299144, -0.0986376, 0.00662415, -0.106348, -0.0441293, 0.10004, 0.23711, -0.214918, 0.0272778, 0.298813, 0.0187241},
{-0.100376, 0.0158235, 0.193915, 0.0288799, 0.115729, -0.326807, 0.367952, 0.0577181, -0.143466, -0.14277, -0.21522, 0.281816, 0.078473, -0.00243341, -0.362962, 0.09704, 0.0797929, -0.154968, 0.0536342, 0.0878504, 0.0160184, -0.185324, 0.0517347, -0.165921, 0.0617939, -0.194824, 0.179033, 0.239574, -0.228401, 0.13193, 0.0690192, -0.238606, -0.0937503, -0.09231, -0.39602, -0.0233742, 0.250736, -0.196292, -0.109216, 0.488153, 0.158974, 0.113914, -0.0295434, -0.199151, 0.173833, 0.351591, -0.0150364, -0.125857, 0.312446, 0.0148397},
{-0.0740575, -0.128993, 0.0800083, 0.098591, 0.0164887, 0.00698267, 0.195514, 0.19345, -0.0182724, -0.0440469, -0.244675, 0.18305, 0.191273, 0.028066, -0.266974, 0.0420933, -0.00291856, -0.17392, -0.0562228, 0.161009, -0.186432, -0.26512, 0.148275, -0.152907, -0.0065245, -0.092575, 0.390773, 0.0777074, -0.43974, 0.186052, -0.0581606, -0.129306, -0.205363, -0.0260127, -0.344905, -0.0093428, 0.274523, -0.0882072, -0.0954793, 0.490826, 0.236377, 0.153142, -0.132379, -0.310307, 0.124674, 0.197107, -0.110457, -0.0139663, 0.309376, 0.0397361},
{-0.0957058, -0.242381, 0.138893, 0.11161, -0.12018, 0.127351, 0.133556, -0.0535472, -0.0964921, -0.0326412, -0.418775, 0.152995, -0.108441, -0.020769, -0.255219, -0.0145342, -0.0141977, -0.250404, -0.0923764, 0.123278, -0.303087, -0.281388, 0.143585, -0.0553288, 0.0191785, -0.0316546, 0.390078, -0.0811335, -0.538687, -0.0103767, -0.000503657, 0.0414003, -0.272441, -0.166578, -0.179753, -0.127331, 0.190571, -0.127443, -0.11218, 0.490512, 0.310596, 0.0391183, 0.0287077, -0.204304, 0.0142975, 0.146137, 0.0566055, -0.0991662, 0.246583, 0.0970476},
{-0.0657446, -0.320472, 0.149964, -0.088616, -0.251687, 0.11402, 0.0816547, 0.0601643, -0.0915094, -0.0184012, -0.383691, 0.142928, -0.0794477, -0.139425, -0.124331, -0.0691506, 0.140833, -0.458267, 0.155846, -0.0141944, -0.167259, -0.275968, 0.144818, 0.00478325, 0.250279, 0.110943, 0.269077, -0.0741911, -0.510594, -0.0677338, 0.169886, 0.181913, -0.482397, -0.185867, -0.127486, 0.0669143, 0.302609, -0.0672873, -0.0062185, 0.289969, 0.352017, 0.350939, 0.0189414, -0.409822, -0.000269985, 0.0837182, 0.109803, 0.065263, 0.189397, 0.0461302},
{-0.109461, -0.203817, -0.0091662, 0.0349303, -0.0977439, 0.00652333, 0.0479939, 0.149158, -0.207305, -0.0433694, -0.425956, 0.101944, 0.0316614, -0.222505, -0.112614, -0.0556155, 0.0190306, -0.276554, 0.0833061, -0.0169953, 0.0289863, -0.320295, 0.192179, 0.0142427, 0.24519, 0.0190081, 0.329183, 0.00902264, -0.402936, -0.0648575, 0.156782, 0.230146, -0.378266, -0.148208, -0.203675, -0.118907, 0.0721078, -0.1419, -0.0194709, 0.203189, 0.26496, 0.217807, 0.125519, -0.303904, 0.0505042, 0.112898, 0.145683, -0.00485736, 0.0923394, 0.0661763},
{-0.0756401, -0.237006, -0.0974454, 0.227853, -0.030008, -0.0626903, -0.0779328, 0.214911, -0.192075, -0.157933, -0.343723, -0.0396377, -0.0375992, -0.144489, -0.165038, 0.0572821, 0.0426266, -0.380141, 0.0649955, 0.106434, -0.0872066, -0.164114, 0.24541, 0.119619, 0.207538, -0.0838478, 0.241071, 0.070478, -0.387881, -0.0593894, -0.226455, 0.257771, -0.479316, -0.068216, -0.124053, -0.0318795, -0.193763, -0.0558102, 0.106642, 0.0147885, 0.208614, -0.0368439, 0.159171, -0.406782, -0.137783, 0.00840387, 0.159961, 0.106298, 0.0420749, 0.140199},
{0.0181421, -0.166109, -0.0238763, 0.0426447, -0.0287723, -0.00781069, -0.196004, 0.0533446, -0.310105, -0.220591, -0.423419, -0.099777, -0.332932, 0.000474049, -0.141785, 0.00608661, 0.200827, -0.440111, 0.0106757, -0.0426361, -0.0146217, -0.00888788, 0.0394384, 0.104323, 0.0813331, -0.0578993, 0.130429, 0.013507, -0.224995, -0.0110164, -0.0978003, 0.189824, -0.419049, -0.196709, -0.065808, -0.233796, -0.193837, -0.0400689, 0.0726991, 0.0424625, 0.350212, -0.148968, -0.050419, -0.36067, -0.118745, 0.032986, 0.256809, -0.0142539, 0.0507895, 0.135431},
{-0.0202342, -0.0936376, 0.0431036, -0.0155624, -0.100424, -0.0154913, -0.207561, -0.0379292, -0.164705, -0.248153, -0.353436, 0.0517623, -0.278751, 0.0768684, -0.292085, -0.104275, 0.149118, -0.452784, -0.037277, -0.0944113, 0.131872, 0.020298, 0.0343281, 0.198598, 0.0724119, -0.151256, 0.0466046, 0.0185858, -0.110734, -0.0556271, -0.206241, 0.105926, -0.359878, -0.105811, 0.0263156, -0.299966, -0.254877, 0.0358328, 0.0381546, 0.099656, 0.213079, -0.154892, -0.141103, -0.0807785, -0.192937, 0.102179, 0.11784, 0.0349258, 0.131603, 0.103023},
{-0.0666969, 0.0752424, 0.0048122, 0.121919, -0.101298, -0.0460823, -0.140363, 0.0765061, -0.0818814, -0.297523, -0.116278, -0.0370914, -0.347098, 0.0418867, -0.315768, -0.0355813, -0.0815501, -0.230988, 0.0226607, -0.169051, 0.137843, 0.000574868, 0.0433973, 0.178321, -0.0444141, -0.0773799, -0.00211669, -0.106986, -0.114554, -0.112643, -0.348026, -0.126456, -0.160728, 0.165202, 0.0276557, -0.426879, -0.195656, -0.00592258, 0.197912, -0.0372683, 0.251093, -0.103126, 0.0291673, -0.109454, -0.186575, 0.070846, 0.112141, 0.122799, -0.0201889, -0.0243027},
{-0.154253, 0.00525759, -0.104155, 0.0466238, 0.0664615, -0.0981347, -0.178517, 0.0876329, 0.0394419, -0.167764, -0.135679, -0.0371566, -0.307907, -0.0374966, -0.339309, 0.0466722, -0.0334295, -0.464732, -0.0534342, -0.14438, 0.059187, 0.0159413, 0.0432115, 0.103894, -0.186027, 0.00829402, -0.0177507, -0.227923, 0.0608039, -0.0531393, -0.184664, -0.226338, -0.275228, 0.17271, 0.16972, -0.200841, -0.238029, 0.106308, 0.0108789, -0.0700481, 0.0454674, -0.0487955, -0.105769, -0.00762975, -0.118591, -0.0764223, 0.0256035, 0.186122, -0.116715, -0.0853809},
{-0.372726, 0.146523, -0.143048, -0.0119197, 0.0602195, -0.112556, -0.0998451, 0.0693181, -0.101515, -0.0874909, -0.212776, 0.0291303, -0.255381, -0.0284793, -0.308111, 0.167681, -0.0237817, -0.512178, -0.0181855, -0.17791, 0.0873339, 0.0430098, 0.0996308, 0.197234, -0.179635, -0.0691967, -0.056326, -0.150277, -0.06722, -0.124936, -0.0467199, -0.315598, -0.154679, 0.278551, 0.0831877, -0.220828, -0.166485, -0.103234, 0.0266208, 0.081868, -0.0208298, -0.0288793, 0.0838079, -0.0391643, -0.0367027, -0.148352, 0.172275, 0.0682179, 0.032341, -0.20901},
{-0.433627, 0.211922, -0.338864, 0.118659, -0.0761287, -0.06143, 0.0502694, 0.0849863, -0.00730738, 0.00938028, -0.177034, -0.153431, -0.394192, -0.167847, -0.213103, 0.086281, -0.0915727, -0.520726, 0.0896973, -0.0421769, 0.00835193, -0.0431966, 0.201256, 0.153046, -0.226176, -0.083003, 0.0474307, 0.01116, -0.133088, -0.0683232, -0.195325, -0.175234, -0.275156, 0.348506, 0.0131597, -0.273498, -0.085651, -0.128716, 0.0484755, 0.0832186, 0.0413471, -0.257794, 0.0198111, -0.146981, 0.0733848, 0.00861228, 0.229971, -0.148321, -0.0257829, -0.0135121},
{-0.136327, 0.148892, -0.435986, 0.217418, -0.29813, -0.0672468, -0.0147537, 0.143098, 0.0514379, -0.0761418, -0.0540846, -0.267679, -0.19472, -0.0469929, 0.0959101, -0.0775815, -0.181998, -0.611672, 0.0831368, 0.0854976, -0.0450225, -0.000106656, 0.28117, 0.146158, -0.0895586, 0.0120107, -0.0381233, -0.0614847, -0.0505672, -0.0968534, -0.29665, -0.0319295, -0.0355715, 0.269291, 0.0710856, -0.406438, -0.0356014, -0.080429, 0.134851, 0.104257, 0.152205, -0.253343, 0.0793027, -0.0381233, -0.04824, 0.0364334, 0.0771526, -0.0634294, -0.157366, -0.0818795},
{-0.1982, 0.274743, -0.331452, 0.141717, -0.196643, 0.034063, 0.164365, 0.0419348, 0.119998, -0.0595091, 0.00822164, -0.187817, -0.183848, -0.0571516, -0.0670213, 0.0402967, -0.0310229, -0.439407, 0.0731058, 0.233139, 0.0220087, -0.0812682, 0.327635, 0.0660913, 0.0280014, 0.051625, -0.0540488, -0.0571554, -0.0553213, -0.214594, -0.303666, -0.119556, 0.0365302, 0.254046, -0.143878, -0.364361, -0.0856509, -0.134414, 0.152004, -0.194416, 0.0346272, -0.289336, 0.201938, 0.0185434, 0.0934338, 0.018533, -0.00242843, -0.141477, -0.13089, -0.0396914},
{-0.266956, 0.164215, -0.182182, 0.215935, -0.270724, -0.076743, 0.220277, 0.0990207, 0.0835964, 0.0487573, -0.284171, -0.404277, -0.0360703, -0.0127322, 0.0603412, -0.091895, 0.0269274, -0.306263, -0.00206183, 0.109095, -0.0525429, 0.162225, 0.237865, 0.131269, 0.0695843, -0.100958, -0.128602, 0.00900903, 0.0718664, -0.155224, -0.459126, -0.171469, 0.0353893, 0.0813486, -0.101876, -0.299619, -0.0896884, -0.0772429, 0.0944647, -0.161017, -0.0673744, -0.253145, -0.0411383, 0.00157555, 0.0307287, 0.0734471, -0.0380418, -0.135956, -0.17853, 0.0619578},
{-0.201245, 0.0306857, -0.226051, 0.0571607, -0.145725, 0.0229874, -0.0361095, 0.168953, 0.114107, 0.149487, -0.273814, -0.494859, -0.0459185, 0.128936, 0.136833, -0.00996336, 0.0179685, -0.160598, -0.044526, 0.164049, 0.10823, 0.27045, 0.176921, 0.336604, 0.0493498, -0.0786725, -0.049271, 0.0439454, 0.123205, 0.0797645, -0.338988, -0.071551, -0.0336531, -0.0426732, 0.0587705, -0.183945, -0.254502, 0.0464549, 0.111065, -0.125358, -0.151824, -0.286202, -0.0230083, -0.022486, 0.165188, -0.0923674, -0.171672, -0.104001, -0.418403, 0.11626},
{-0.186473, 0.0652084, -0.195854, 0.119736, -0.157274, 0.145455, 0.0294617, 0.0576152, 0.0453512, 0.237778, -0.0814462, -0.567679, 0.0513248, 0.0957866, 0.194605, 0.0589957, -0.039567, -0.11865, -0.0502726, 0.178722, 0.0746569, 0.388933, 0.307005, 0.195345, 0.11556, -0.00777194, 0.00504918, 0.0701128, 0.17092, -0.0929135, -0.202068, 0.0348255, 0.0750747, -0.0571999, 0.106282, -0.0337536, -0.244201, 0.0522497, -0.0167952, -0.200322, -0.113175, -0.283188, -0.0492198, -0.0904354, 0.0401864, 0.00747217, -0.188278, -0.0925647, -0.588342, 0.164318},
{-0.0945636, 0.0899371, -0.313561, -0.0608049, -0.0755456, -0.0287376, 0.0643326, 0.140587, -0.136652, 0.341402, -0.0750718, -0.619104, -0.0187932, 0.141987, 0.344748, 0.0276559, -0.0844968, -0.0242414, -0.0165669, 0.35152, 0.0765094, 0.483509, 0.171353, 0.115189, 0.25132, -0.1601, 0.0110723, 0.225522, 0.14981, -0.114978, -0.0700067, 0.0646594, 0.0241635, 0.0211369, -0.107971, -0.028535, -0.104717, 0.0466038, -0.0107238, -0.0819482, -0.227052, -0.182036, 0.0643029, 0.0177423, 0.137917, -0.0855276, -0.00116887, 0.05264, -0.562274, 0.238845},
{-0.300845, -0.14522, -0.0786579, -0.104073, 0.109351, -0.168908, 0.13036, 0.27059, 0.196108, 0.365614, 0.0144263, -0.442804, 0.295106, -0.0305986, 0.300918, 0.0574842, -0.0735512, -0.119631, 0.0495476, 0.557529, -0.0767016, 0.401987, 0.102284, 0.24034, 0.0962728, -0.238336, 0.124417, 0.280124, 0.23106, -0.251069, 0.120458, -0.00391155, 0.0128036, -0.1589, -0.232221, 0.0987463, 0.0376849, 0.171672, -0.0234685, -0.329922, -0.378873, 0.118708, 0.102685, 0.328476, 0.0864026, -0.040479, -0.254749, 0.0163292, -0.468119, 0.313788},
{-0.26671, 0.00555799, -0.0946651, -0.0132462, 0.0882358, -0.0242259, 0.165797, 0.046277, 0.261078, 0.325778, -0.0756247, -0.351478, 0.160671, -0.00623357, 0.286621, 0.148952, -0.128373, -0.157728, 0.166028, 0.317695, -0.00751436, 0.386448, 0.313713, 0.176171, 0.106847, -0.426785, 0.302523, 0.168459, 0.169524, -0.201213, 0.00339955, 0.133098, 0.0586413, -0.331281, -0.324285, -0.0241823, -0.0267208, 0.497658, 0.134387, -0.26901, -0.390927, -0.0219553, 0.194728, 0.138261, 0.192734, -0.168468, -0.321967, -0.0159859, -0.413663, 0.17103},
{0.13164, 0.11078, -0.0990314, 0.159969, -0.29167, -0.165549, -0.105945, -0.0797393, 0.19168, 0.415875, 0.0836673, -0.31972, -0.151982, 0.0893446, 0.194594, -0.047138, 0.124029, -0.222204, 0.0607148, 0.057458, 0.262089, 0.398466, 0.226775, 0.207226, -0.0263263, -0.43176, 0.646854, 0.186014, 0.109197, 0.00654407, -0.282634, 0.362182, -0.418976, -0.4845, -0.255948, -0.392202, -0.0403299, 0.505481, 0.32986, -0.00463745, 0.178587, -0.295324, 0.107315, -0.240272, 0.429381, -0.080753, 0.0151039, -0.324718, -0.291677, 0.0342163},
{-0.0584312, 0.105534, 0.105975, 0.248344, 0.215956, -0.146709, -0.0731651, -0.195562, 0.224659, 0.158513, 0.0672896, -0.189155, -0.0158755, 0.174054, 0.221454, 0.0801919, -0.0944747, -0.0969587, -0.00102995, -0.185166, -0.013982, 0.00431168, 0.245956, 0.350811, 0.0383903, -0.32078, 0.305802, -0.00442658, 0.153802, 0.0014342, -0.322941, 0.217117, -0.172655, -0.344546, -0.0217652, -0.0523603, -0.0930966, 0.263214, 0.308376, -0.261086, -0.0367432, -0.241952, -0.0828251, 0.0290127, 0.222722, -0.207162, -0.116117, -0.267583, -0.23629, -0.103815},
{-0.18216, -0.160835, 0.0552098, 0.148086, -0.0168645, -0.0463827, 0.0563259, -0.173411, 0.189059, -0.0491245, 0.00206401, -0.0817799, 0.223117, -0.0937291, 0.241708, 0.0960993, -0.139199, -0.184464, 0.130702, -0.141964, -0.150614, -0.128098, 0.215322, -0.101762, 0.0329037, -0.260906, 0.137982, -0.145472, -0.168522, -0.167922, -0.18964, -0.0825329, -0.123213, -0.276141, -0.0465875, 0.245711, -0.0386245, 0.144509, 0.159402, -0.193192, -0.169695, 0.20974, -0.0816956, 0.237365, 0.0203415, -0.102541, -0.203862, -0.119288, 0.0276232, -0.164165},
{-0.0583562, -0.0458408, -0.0083949, 0.0508408, -0.0131069, -0.00188386, -0.0201666, -0.0401613, 0.0393038, 0.0756106, -0.0643393, -0.0236184, -0.0595156, 0.00679125, 0.0324215, -0.0192297, 0.081355, 0.0812953, 0.0744384, 0.0661601, -0.0191303, 0.0220752, 0.081659, 0.0188383, -0.0263594, -0.0399356, 0.0423694, 0.0332725, 0.0524808, 0.0519975, 0.0797903, -0.0561484, -0.0339645, 0.0806137, 0.0382721, 0.0214041, -0.00210615, 0.0172101, 0.0596449, 0.0529703, 0.0747464, -0.0587516, 0.0436885, -0.0370884, -0.0478645, -0.0442044, -0.0333981, 0.0770161, -0.0447308, 0.060459},
{-0.0674232, -0.0678742, -0.118245, 0.0258785, 0.0457622, -0.00584128, 0.0499383, -0.0661171, -0.0413809, 0.0465175, -0.059063, 0.164512, 0.0076396, -0.0375228, -0.11585, 0.0875243, -0.0481738, -0.0221021, -0.0164129, 0.156025, -0.119953, -0.163976, 0.120374, -0.0121154, -0.0773236, -0.00262687, -0.000752426, -0.030982, -0.125232, 0.00888404, -0.0573534, 0.0249488, -0.197791, 0.0261292, 0.0754394, 0.00607016, 0.0566624, -0.183188, 0.0815362, 0.0170349, -0.0561215, -0.15586, -0.00397573, -0.0940816, 0.0782552, -0.00956448, 0.0661194, -0.161888, 0.086818, 0.0660471},
{0.294544, 0.186024, -0.0576875, -0.0253062, -0.137118, 0.079649, 0.0267113, -0.0254735, -0.0269774, -0.15527, 0.135951, 0.0921961, -0.0116134, 0.0530007, -0.119411, -0.193297, -0.174312, -0.0138732, -0.116707, 0.0985231, -0.0816449, 0.00513627, -0.2538, -0.0757075, 0.179755, -0.000310355, -0.181882, 0.0710937, 0.0249257, 0.084959, -0.0290239, -0.0770168, -0.0612052, -0.197077, -0.0819565, -0.0462308, 0.0775448, -0.106842, -0.0102939, 0.0927725, 0.147308, -0.0366011, -0.0328331, -0.0253039, -0.10686, 0.101506, 0.0537686, 0.170629, -0.0261514, 0.113519},
{-0.167727, 0.00410923, -0.0318839, -0.0877045, 0.0811698, 0.0753578, 0.21192, -0.13834, -0.0884351, -0.280907, 0.265607, 0.461997, -0.098275, -0.10695, -0.40467, 0.0257177, 0.384018, 0.0380585, -0.00420602, 0.0113076, 0.0939756, -0.262375, 0.011017, -0.234331, 0.085459, 0.13062, -0.275239, 0.093974, -0.0340177, 0.0243794, 0.146332, -0.359542, 0.0629395, -0.0784884, -0.239984, 0.00819061, 0.207611, -0.146309, -0.246683, 0.330939, 0.110319, -0.24541, -0.0987006, -0.205376, 0.197459, 0.137163, 0.24074, -0.0790619, 0.306199, 0.144087},
{-0.349967, -0.00773078, 0.052695, 0.0605218, 0.0510969, -0.117959, 0.15085, -0.235075, 0.211488, 0.0386215, 0.0143726, 0.16358, 0.196039, -0.129775, -0.251105, 0.0454521, 0.0580183, 0.0184817, 0.225732, 0.217794, -0.306631, -0.138885, 0.121348, -0.227018, 0.0727345, 0.0513117, 0.0551336, 0.0836209, -0.0668239, -0.00845422, 0.0743835, -0.360038, 0.00591498, -0.184336, -0.225463, 0.0908275, 0.149315, -0.0423764, -0.0741052, 0.50772, 0.0484722, 0.0704377, -0.0483661, -0.185257, 0.104153, 0.173587, -0.124494, -0.122828, 0.188008, -0.0094288},
{-0.0308398, -0.0138598, -0.0901709, 0.0665701, -0.212787, -0.125203, 0.266939, 0.0717109, -0.111936, 0.161627, 0.148338, 0.180376, 0.147229, -0.0606154, -0.110559, -0.19478, -0.147939, 0.103708, 0.00670545, 0.404257, -0.263678, -0.0896058, -0.100386, -0.0640233, 0.234027, 0.169497, 0.247877, 0.180607, -0.265155, 0.181856, 0.0547856, -0.101903, -0.221612, -0.0936404, -0.166456, 0.170384, 0.21452, -0.237341, -0.0648173, 0.599264, 0.189894, 0.339421, 0.143457, -0.186734, 0.0492731, 0.234201, 0.233709, 0.0248984, 0.330233, -0.049835},
{-0.115534, -0.0855333, 0.0338279, 0.0350267, -0.037339, 0.135178, 0.112807, 0.0463738, -0.205953, -0.0268598, 0.0288025, 0.223198, 0.0673511, -0.0956762, -0.185176, -0.172184, -0.0520815, 0.106576, 0.0393466, 0.222408, -0.24608, -0.125325, -0.00426202, -0.113067, 0.322164, 0.255632, 0.279096, 0.162057, -0.426572, 0.199986, -0.0254716, 0.00478824, -0.242338, -0.153193, -0.210087, 0.0362204, 0.30437, -0.11341, -0.184903, 0.618455, 0.463749, 0.122714, 0.142638, -0.350497, 0.107878, 0.19986, 0.194456, 0.0507139, 0.283209, -0.0549243},
{0.0663013, -0.0548068, 0.177289, 0.112672, -0.102201, 0.210118, 0.0607286, -0.0187895, -0.283558, -0.0119591, -0.138604, 0.106526, -0.166471, -0.153993, -0.110826, -0.0737927, -0.129252, -0.109278, 0.126972, 0.243484, -0.222768, -0.0925351, 0.0240731, 0.0842488, 0.0885457, 0.0912759, 0.355807, 0.0924034, -0.545845, 0.024774, 0.00281383, 0.168319, -0.356698, -0.121555, -0.127597, -0.125602, 0.286661, 0.0301754, -0.0067387, 0.329296, 0.45722, 0.0955068, 0.236655, -0.479959, -0.097263, 0.115513, 0.0472764, 0.108343, 0.147177, -0.137844},
{-0.0658524, -0.0318563, 0.129827, 0.00328773, -0.245464, 0.0213094, 0.0260565, 0.113404, -0.322762, 0.0146456, -0.125491, 0.0566476, -0.0858067, -0.181054, -0.118988, -0.150858, -0.0160748, -0.366948, 0.255184, 0.0965549, 0.0235944, -0.230361, 0.241062, 0.143468, 0.292863, 0.157021, 0.376346, 0.274364, -0.5229, 0.0820054, -0.0849401, 0.244567, -0.381859, -0.152649, -0.130424, -0.146516, 0.16036, 0.0757763, -0.0482261, 0.276624, 0.370213, 0.0913429, 0.0808315, -0.513447, -0.0468681, 0.14025, 0.0830295, 0.107079, 0.00327793, -0.0337408},
{-0.0673813, -0.103026, 0.199274, 0.0169593, -0.160681, 0.0533303, -0.0884551, 0.0241687, -0.444484, -0.00519932, -0.258293, -0.0273336, -0.0635523, -0.191412, -0.0975874, -0.171922, -0.0563711, -0.309359, 0.0926435, -0.0514656, 0.137847, -0.137957, 0.0442015, 0.0474785, 0.14477, -0.00294752, 0.479814, 0.147287, -0.575164, 0.129774, 0.00255623, 0.234746, -0.678951, -0.16755, -0.203289, -0.238875, -0.0172744, -0.107271, -0.000249861, 0.243632, 0.509615, 0.0300309, -0.00178286, -0.547914, -0.0677557, 0.177746, 0.0230493, -0.0348769, 0.118165, 0.0925125},
{0.0305616, 0.0229873, 0.105669, 0.0284206, -0.0369574, -0.0255142, -0.147267, 0.0236308, -0.443822, -0.326569, -0.181292, -0.0126324, -0.392871, -0.109166, -0.211568, -0.101452, 0.120456, -0.309148, -0.00542715, -0.125543, 0.339141, -0.149325, -0.0177881, 0.0752465, 0.179691, 0.118385, 0.241177, 0.216205, -0.198549, -0.0123767, -0.055931, 0.0270966, -0.716849, -0.103934, -0.144365, -0.318868, -0.0310498, -0.19167, 0.00756862, 0.0219629, 0.230151, -0.0232242, -0.0066962, -0.423866, -0.176231, 0.267757, 0.244248, -0.0901919, 0.0255322, 0.20183},
